The 0.062568 0.125000 0.062500 -0.124549 0.125000 0.050032 0.125000 0.062500 -0.015642 0.015625 0.031334 0.107563 -0.125000 0.031250 0.098137 -0.125000 0.010880 0.062500 -0.115976 -0.046340 0.015625 0.250000 0.062500 -0.031250 -0.015626 0.015625 0.095920 0.085600 -0.247758 0.125000 -0.124079 0.125000 -0.051739 0.025213 -0.026865 -0.114921 -0.023668 -0.125000 0.124514 -0.093603 0.006008 0.125000 -0.237315 -0.096823 0.148867 -0.129580 -0.062500 0.125000 0.098932 0.125000 0.125000 0.031250 0.108070 0.025051 -0.062500 -0.056473 -0.125000 0.125000 0.111326 -0.033655 0.062500 0.125000 0.125000 -0.052950 0.038497 -0.011812 -0.052208 -0.062500 0.125000 0.046588 0.005765 -0.062500 -0.031250 -0.096100 -0.177892 -0.020354 0.050500 -0.062500 -0.125000 -0.062500 0.062500 -0.108339 -0.062500 -0.201724 0.062500 -0.031250 -0.177419 -0.015649 -0.125000 0.016782 -0.170549 -0.175991 0.125000 0.047690 -0.099153 -0.013947 0.103059 -0.004052 0.062500 0.031250
statistical 0.113761 -0.081771 -0.106614 -0.029368 -0.008853 0.135500 0.013008 -0.025641 -0.138816 0.030453 0.005161 0.045454 -0.157951 0.051530 0.065399 0.065854 -0.148029 -0.037195 0.081814 -0.053590 -0.052388 0.035039 0.087239 0.033775 -0.190243 -0.095929 0.216992 -0.035220 0.039422 0.018108 -0.026315 -0.151478 0.129742 0.118792 -0.112465 0.076101 0.109611 -0.057215 -0.174171 0.238605 0.101595 0.028285 0.140955 0.035521 0.098489 0.070625 0.024952 -0.049515 -0.007389 -0.071736 -0.068490 0.053393 0.039986 -0.039133 0.140539 -0.075775 -0.198866 -0.005596 0.022403 0.157920 -0.012546 -0.006932 0.114309 0.173659 0.041959 -0.011128 -0.073252 -0.074205 0.067803 0.169889 -0.065580 -0.171814 -0.025881 0.124194 -0.037864 0.009964 0.128582 -0.055001 -0.067049 -0.103207 -0.018441 -0.066100 0.161400 0.116748 0.111648 0.052316 0.128355 0.084623 0.042311 0.021173 -0.257361 0.008439 0.131616 -0.143708 -0.057052 -0.201509 0.018408 -0.018867 0.070795 0.045732
mountainous 0.108906 0.000178 -0.136661 -0.012038 0.032119 -0.048181 -0.000252 0.061203 -0.084091 -0.003243 0.025722 0.007924 -0.175479 -0.062629 0.057072 -0.084678 -0.187455 -0.108692 0.099892 0.003956 -0.059952 -0.096303 0.113377 0.032926 -0.177609 -0.048582 0.084597 -0.042274 0.134326 0.024694 -0.105157 -0.105971 0.163868 0.066233 -0.235963 0.017965 0.067014 0.068013 -0.039235 0.227555 -0.014397 0.007622 0.168826 0.084796 0.151715 0.041197 0.100443 -0.049849 -0.157194 0.084645 0.026793 0.026718 0.099646 0.088184 0.147894 -0.012056 -0.150168 0.011732 0.064684 0.153883 -0.145811 -0.005673 0.080880 0.068685 -0.001865 -0.056303 -0.034059 -0.065749 0.046632 -0.066268 -0.176826 -0.117985 0.003795 0.093650 0.074069 0.050546 0.033609 -0.146765 -0.086817 -0.105248 0.000372 0.001219 0.200679 0.123648 0.068427 -0.061010 0.090055 0.186522 0.064021 -0.042448 -0.213750 -0.022317 0.114966 -0.124832 -0.084560 -0.157654 -0.080180 -0.111725 0.020953 0.070968
regions -0.195660 -0.088716 -0.036764 -0.032532 -0.005122 0.045090 -0.309246 -0.042827 -0.154006 -0.104107 0.095091 -0.082078 -0.032424 0.032750 -0.019243 0.013647 0.042591 0.091835 -0.080067 -0.067329 0.081057 -0.114702 -0.142238 0.030888 -0.032372 -0.051818 0.066356 0.015543 0.148421 -0.105487 0.060953 -0.002139 0.142078 -0.067555 0.119099 0.051457 0.055187 -0.117597 -0.319729 -0.005173 -0.026363 -0.078279 0.139918 -0.068215 0.080175 -0.073555 -0.101978 0.010969 -0.191779 0.066041 -0.234834 0.077067 -0.063456 0.165971 0.035987 -0.117257 0.186030 -0.086384 -0.098377 -0.027211 -0.190513 -0.054624 0.023428 -0.123912 -0.077665 -0.071208 -0.084256 0.058872 0.041610 0.034827 -0.085771 0.097540 0.028451 -0.027574 -0.084884 -0.059072 0.035457 0.031700 0.126372 0.006362 0.022450 0.122658 0.013877 -0.002581 0.016691 0.049665 -0.118380 -0.017069 0.124610 -0.095972 0.148063 -0.064469 -0.043952 0.018148 0.068589 -0.098855 0.119210 -0.082981 -0.032492 -0.162406
account -0.151394 -0.176838 -0.175775 0.005296 -0.063708 0.106857 -0.108468 -0.040763 0.024888 -0.116053 -0.005648 0.021624 0.124104 0.191670 0.030182 0.143747 0.008942 0.011172 -0.089973 -0.002134 0.050384 0.083128 -0.046159 0.050942 -0.016277 -0.087976 -0.023031 -0.060462 0.066323 -0.002913 0.031158 -0.092799 -0.045112 0.030561 0.207763 0.111299 0.096727 -0.222431 -0.345690 0.014120 0.149439 -0.043298 0.136650 -0.044417 0.068960 0.092685 -0.083878 0.122081 0.166125 -0.062582 -0.119451 -0.004550 -0.088603 -0.086788 0.141886 0.025858 -0.066382 0.095020 -0.130853 -0.051360 -0.017106 -0.029398 -0.012090 -0.017525 0.029110 -0.076061 -0.069524 0.067942 -0.072628 0.342762 0.019968 -0.047871 0.064663 0.005591 -0.070994 -0.032007 0.040881 0.167447 0.060338 0.039534 -0.098686 -0.068925 -0.015728 -0.107802 -0.161935 0.029121 -0.070401 -0.093139 0.005546 -0.050488 0.117641 0.000990 -0.064886 -0.123932 0.024180 -0.041340 -0.056374 -0.097256 0.085210 -0.055407
of -0.125015 0.062237 0.091451 0.062725 -0.121211 -0.060380 -0.125088 -0.075865 0.117317 -0.124657 -0.112486 -0.112373 -0.123943 -0.062862 -0.062502 0.125015 -0.125014 -0.125014 0.062500 -0.062517 -0.060437 0.062500 0.093293 0.124735 -0.125014 0.062777 0.119122 -0.119460 -0.062500 0.125014 0.107311 -0.067975 -0.108272 -0.062508 0.167236 -0.062500 0.062500 0.094707 0.124906 -0.062500 -0.116185 0.125014 -0.062500 -0.078297 -0.125012 -0.120440 0.080895 -0.124786 0.125015 0.064929 -0.125014 0.062508 0.125014 -0.115683 -0.062500 0.062515 -0.082955 -0.062500 0.062500 0.062500 0.061499 -0.125014 -0.062507 -0.062500 0.105793 0.096422 0.111760 0.062518 0.062500 -0.148685 0.062500 0.116280 -0.062500 0.123638 0.117848 -0.117498 -0.095133 0.114109 -0.062475 0.085477 0.062522 -0.066043 0.125015 0.062501 -0.060888 0.062505 -0.250029 0.076861 -0.089865 0.062500 -0.124622 0.107641 -0.124965 0.110756 0.062509 0.062500 0.125014 0.098776 0.083389 0.125015
Slovenia 0.039665 -0.020384 -0.056500 0.053140 0.045511 0.039457 -0.164204 0.134830 -0.073024 -0.064008 -0.001645 -0.132047 0.044062 -0.020133 0.161099 -0.031910 0.071286 -0.052651 0.087111 -0.008198 0.071373 -0.260976 -0.043480 0.021576 -0.012722 -0.013515 0.004683 0.084637 0.048984 -0.013161 -0.183879 0.150633 0.054460 -0.081367 0.001048 0.034878 0.142909 -0.010225 -0.087622 -0.205596 0.095187 0.105977 -0.077433 0.050643 -0.108567 -0.062156 -0.053512 0.030692 -0.180586 0.041630 -0.075885 -0.037278 0.170410 0.136423 0.092167 0.068425 0.171880 0.052625 -0.018729 0.002859 0.055005 0.095210 -0.105336 0.090019 -0.121820 -0.113421 0.041051 -0.155333 -0.338886 -0.061526 -0.009334 0.009083 -0.081153 -0.048071 -0.101612 0.017179 -0.060210 0.035389 -0.171445 -0.233314 -0.087217 0.026817 0.029615 0.173547 0.009873 -0.009353 -0.075641 -0.008730 -0.021486 -0.046990 0.047870 -0.198635 0.029594 0.005834 0.065138 -0.020811 0.160920 -0.057478 0.158042 0.058950
Guyana 0.036965 -0.035585 -0.045460 0.049479 0.054712 0.052785 -0.181570 0.154868 -0.084186 -0.051829 0.028265 -0.134745 0.036182 -0.014604 0.154833 -0.032832 0.054742 -0.068512 0.085164 -0.028528 0.089448 -0.240024 -0.037693 0.022207 -0.032652 -0.018597 0.006291 0.099663 0.064145 -0.020650 -0.186544 0.138059 0.083150 -0.070518 -0.026811 0.022657 0.132039 -0.014098 -0.111634 -0.175328 0.091387 0.123894 -0.062551 0.050913 -0.083166 -0.074209 -0.053853 0.025906 -0.184968 0.036320 -0.084671 -0.032833 0.160895 0.153771 0.113285 0.056430 0.142188 0.049496 -0.025619 0.006719 0.025183 0.100606 -0.088499 0.097883 -0.126227 -0.135000 0.035380 -0.163055 -0.326478 -0.045130 -0.028480 -0.006678 -0.083022 -0.043654 -0.116917 0.007989 -0.048160 -0.006556 -0.170323 -0.255756 -0.071482 0.041301 0.056927 0.158770 0.016429 -0.033401 -0.077855 0.013251 -0.008217 -0.075894 0.017582 -0.200818 0.049113 -0.000097 0.070702 -0.038948 0.163078 -0.066087 0.134257 0.051670
are -0.045928 0.026104 0.130578 -0.093280 0.125000 -0.005640 -0.093750 -0.048750 0.031250 0.062500 -0.102853 0.062500 -0.023687 -0.093750 -0.007812 0.125000 0.046113 -0.093750 0.106489 0.093750 0.084130 -0.092930 -0.187391 0.003468 0.062499 0.118106 -0.093750 0.046302 -0.008337 0.046875 0.093750 0.093750 0.125000 0.031250 0.012147 -0.093750 -0.000462 0.187500 0.187500 -0.093750 -0.031250 0.000640 -0.031250 -0.016765 -0.062500 0.099957 0.035905 -0.062500 0.001630 -0.045993 0.051831 0.062500 -0.056091 -0.039660 -0.196299 0.093233 0.093750 0.046875 -0.062500 0.046875 -0.015625 -0.046875 0.046875 0.093610 -0.016394 0.025735 0.027730 0.161746 0.093750 -0.093750 -0.093749 0.093750 0.046874 -0.125000 -0.017558 0.043478 -0.152960 0.125000 0.125000 0.413650 0.093746 -0.093750 -0.125000 -0.093750 -0.125000 0.023438 0.187496 -0.126386 0.202443 0.068089 0.187500 0.048760 -0.009409 -0.093750 -0.062500 0.062500 0.122043 0.093750 -0.093748 0.046875
and 0.125000 0.059669 0.063320 0.225320 -0.125000 0.123143 0.122025 -0.087506 0.111396 0.062071 -0.125000 0.125000 0.113914 -0.120173 -0.071631 -0.062507 0.090495 -0.080379 0.118776 0.102601 0.062500 0.064869 -0.125000 -0.035646 0.060120 0.076105 0.125000 -0.123302 -0.062500 -0.125000 0.072764 -0.109507 0.081969 -0.012985 -0.090131 -0.213602 -0.121910 0.093917 0.124286 -0.062500 -0.106672 -0.125000 -0.013191 -0.098394 -0.125000 0.062509 0.020868 -0.062500 0.125000 0.029370 0.062500 0.062486 -0.065683 -0.062500 -0.075792 -0.062500 0.077068 -0.056276 0.121989 -0.104093 0.104888 0.125000 -0.062500 0.125000 -0.108540 -0.125000 0.039211 0.068483 -0.063741 -0.030455 0.062500 0.092016 0.125000 -0.125000 -0.076174 -0.125000 -0.125000 -0.250000 0.123937 0.069232 0.062742 0.118867 -0.054292 0.046345 0.063759 -0.031413 0.121961 0.044938 -0.031250 0.088874 0.062500 0.062500 0.125000 0.125000 -0.069410 0.066653 0.110615 0.109928 0.125000 -0.125000
12 -0.029393 0.065021 -0.137448 0.146001 0.017313 0.051764 0.026107 -0.061697 -0.212337 0.021556 0.059754 -0.057821 -0.130140 0.043051 0.128143 -0.009535 -0.060479 -0.077588 -0.238785 0.161314 -0.096799 -0.084765 -0.012521 0.150490 -0.015751 -0.015085 -0.084462 0.071369 -0.035464 -0.064301 -0.083816 -0.010225 -0.131695 0.099900 -0.112277 0.019441 0.001801 -0.024359 -0.009631 0.117769 0.068784 0.009574 -0.024521 0.016505 0.051055 0.279184 -0.044637 0.024329 -0.098274 0.226396 0.130739 0.099767 0.038352 0.047223 0.091549 0.087318 0.053929 0.203343 0.010143 -0.136091 0.025769 -0.011893 -0.109929 -0.123760 -0.041447 -0.007220 0.015786 0.032779 -0.041555 -0.131470 0.065283 -0.147844 -0.177739 0.111993 -0.054356 0.014591 0.048350 0.064261 -0.038244 -0.135618 0.150797 -0.089937 -0.157169 0.001199 -0.070640 0.119280 -0.069740 0.143215 0.116889 -0.128354 -0.223284 0.002107 0.013908 0.121729 -0.103898 -0.055199 0.072744 -0.053847 0.104042 0.099376
the 0.111513 -0.016552 0.062918 0.062909 0.119662 -0.062911 0.057537 0.043367 -0.062899 -0.105637 0.062908 0.123411 -0.105597 0.081111 0.103164 0.119195 -0.031250 0.123892 -0.111788 0.125409 -0.041260 0.060487 0.031250 0.125818 -0.056027 -0.028773 0.108982 0.062683 -0.119857 -0.116229 -0.118278 -0.125447 -0.062935 -0.082617 -0.046629 0.048813 -0.125643 -0.166195 0.200544 0.123730 -0.113650 -0.062707 -0.114378 0.031250 -0.088189 -0.125818 0.068818 -0.110795 0.062914 -0.118451 0.060884 -0.125817 -0.125818 -0.120547 0.088639 0.105971 0.122950 -0.125810 0.087167 0.073694 0.054316 0.097387 0.118209 0.061194 -0.096224 -0.125818 -0.021932 -0.025406 0.125709 -0.157003 -0.125818 -0.099126 0.055446 0.125818 -0.048472 0.076960 0.042999 -0.122336 -0.124332 -0.082314 -0.123451 0.029953 -0.227989 0.124646 0.122682 0.053319 -0.125561 -0.084903 -0.046431 0.080553 -0.114187 -0.125818 0.125816 -0.062056 -0.099422 -0.058372 -0.119953 -0.123091 -0.062867 0.031250
administrative 0.079161 -0.124455 -0.066984 -0.023033 -0.006984 0.138563 0.008940 0.041562 -0.115984 0.048190 0.019358 -0.040539 -0.125053 0.069791 0.076929 0.083058 -0.140507 -0.089101 0.101154 -0.108640 0.006218 0.047684 0.024841 0.027967 -0.181137 -0.119771 0.166933 0.019525 0.133631 -0.069552 -0.049078 -0.144890 0.137391 0.122653 -0.120728 0.028906 0.131382 -0.009622 -0.163003 0.265532 0.106480 0.048387 0.157224 0.048086 0.077576 0.058474 0.069347 -0.133890 0.018035 -0.113091 -0.080901 0.006407 -0.001256 0.007521 0.113083 -0.048720 -0.168478 -0.008901 -0.017289 0.132004 -0.033501 0.035283 0.084864 0.247176 0.008499 -0.008153 -0.049818 -0.074158 -0.020842 0.133918 0.007932 -0.175468 -0.043865 0.150730 -0.066843 -0.006820 0.079746 -0.088092 -0.044148 -0.156096 -0.005850 -0.012170 0.161209 0.132778 0.089516 -0.034902 0.112626 0.111002 0.061479 -0.020555 -0.219462 0.083228 0.107457 -0.113902 -0.035336 -0.199954 0.056503 -0.044486 -0.022995 0.044626
national 0.069351 -0.116872 -0.076353 -0.011175 0.072352 0.120185 -0.005792 0.145908 -0.124134 0.056027 0.084726 -0.016386 -0.125425 0.049613 0.050971 0.066076 -0.154698 -0.163364 0.074703 -0.093736 0.026366 0.046438 0.026956 -0.003247 -0.191669 -0.119367 0.074249 0.073557 0.139695 -0.032893 -0.073569 -0.130199 0.120171 0.150629 -0.157687 0.010818 0.110487 0.030967 -0.091584 0.234038 0.074162 0.117882 0.109333 0.084569 0.058581 0.040806 0.062973 -0.134782 -0.022350 -0.095312 -0.044396 -0.016312 0.000014 0.007414 0.124002 -0.018324 -0.181207 -0.025584 -0.026883 0.109393 -0.054002 0.041883 0.077410 0.231908 0.002276 -0.022685 -0.035260 -0.121393 -0.035438 0.046927 -0.028297 -0.155105 -0.072226 0.138682 -0.036725 -0.002559 0.031630 -0.123234 -0.075685 -0.154419 0.046523 0.005532 0.167745 0.120328 0.078000 -0.077184 0.063663 0.147403 0.064306 -0.079872 -0.248708 0.067279 0.130264 -0.075415 -0.030047 -0.210929 0.073351 -0.063317 -0.065790 0.099577
entities -0.167790 -0.087750 0.058806 -0.061052 -0.035371 0.122911 -0.242167 -0.120599 -0.111057 -0.042758 0.058475 -0.075065 0.010981 0.072600 0.009154 0.070641 0.082246 0.139162 -0.102907 -0.082131 0.065102 -0.081241 -0.142250 -0.028906 0.017269 -0.019383 0.110144 0.031908 0.122225 -0.172448 0.086233 0.012088 0.119764 -0.055565 0.129141 0.059533 -0.001228 -0.092375 -0.337609 0.037138 0.057496 -0.069328 0.117335 -0.078720 0.029347 -0.035289 -0.105683 -0.056566 -0.116711 -0.038112 -0.289680 0.098541 -0.045975 0.155023 -0.004955 -0.165110 0.145087 -0.056720 -0.139495 -0.026116 -0.113915 -0.068290 0.013239 -0.046919 -0.082812 -0.024867 -0.051925 0.083422 0.022742 0.142350 0.010625 0.073449 0.048605 0.038916 -0.120660 -0.064381 0.122839 0.066479 0.136959 0.000820 -0.002761 0.087350 0.012000 -0.018000 0.067136 0.050772 -0.104289 -0.069470 0.101115 -0.079949 0.197320 -0.021135 -0.095275 -0.003978 0.077071 -0.045137 0.127937 -0.017843 -0.033420 -0.183272
files -0.115062 -0.079056 0.067685 -0.066110 -0.030748 0.124647 -0.200779 -0.159579 -0.121794 -0.003702 0.037852 0.015144 -0.006153 0.034306 -0.005428 0.072514 0.091461 0.156455 -0.057208 -0.021614 -0.004147 -0.070831 -0.126381 0.000253 0.002974 0.008096 0.116880 0.014030 0.049985 -0.083085 0.086270 -0.025387 0.112658 -0.034349 0.111689 0.088426 0.012736 -0.115333 -0.368601 0.014870 0.083280 -0.056668 0.094220 -0.075519 0.037509 -0.009235 -0.135313 0.006679 -0.122246 0.008056 -0.268151 0.135257 -0.010603 0.101338 0.016537 -0.184340 0.080090 -0.037306 -0.063696 -0.035417 -0.130337 -0.101404 0.041257 -0.160966 -0.075674 0.011185 -0.060831 0.117003 0.086384 0.261955 -0.003116 0.073180 0.042611 0.007824 -0.060499 -0.079881 0.184072 0.060671 0.166974 0.080409 0.022938 0.039658 0.015453 -0.083494 0.072175 0.112047 -0.021058 -0.074489 0.100679 -0.084087 0.176493 -0.085069 -0.050506 -0.002014 0.056861 -0.021515 0.080842 0.002477 0.043612 -0.198168
created 0.103352 0.042528 -0.102842 -0.087295 0.098472 -0.033226 0.157990 -0.079596 0.126301 0.093397 -0.181204 -0.047290 0.054491 -0.180545 0.012194 -0.124942 0.107367 0.059896 -0.065365 0.035236 -0.189991 -0.064754 -0.035894 -0.037848 0.090684 0.006726 -0.057352 -0.007332 0.205696 0.051059 -0.046510 0.054227 0.028154 0.094588 0.026706 0.009844 -0.024308 0.084841 0.011942 0.078846 -0.075907 -0.067582 0.096660 0.034354 -0.079597 0.003224 0.243451 -0.020641 -0.079149 0.024973 0.000061 -0.083701 0.118055 -0.130645 0.030498 -0.165085 -0.194761 0.122156 -0.036972 0.156247 -0.006972 -0.192910 -0.012112 -0.033223 0.000007 0.051327 0.012808 0.174996 -0.028272 -0.013856 0.030890 0.073078 -0.033447 -0.152372 0.294556 0.169119 0.036147 -0.096146 0.160882 0.096978 0.011793 -0.061990 0.101156 -0.096287 0.062365 -0.031679 0.151852 -0.011682 0.067047 0.049634 0.017055 0.038487 -0.140509 -0.030180 -0.040543 0.194360 -0.104343 -0.083326 -0.143308 -0.063701
defined 0.126877 0.031592 -0.130034 -0.086385 0.069481 -0.004205 0.173114 -0.082045 0.083605 0.079418 -0.167400 -0.048113 0.023905 -0.174927 0.044896 -0.115031 0.079897 0.051544 -0.100605 0.008882 -0.212747 -0.079942 0.032144 -0.066931 0.058139 -0.029168 -0.023041 -0.027050 0.212522 0.027967 -0.047532 0.037623 0.035220 0.098914 -0.007664 0.054080 -0.058685 0.072598 -0.010457 0.133176 -0.035835 -0.069839 0.152907 0.057823 -0.053351 0.003136 0.234399 -0.030979 -0.071207 0.029851 -0.004012 -0.075186 0.157819 -0.122107 0.068633 -0.205500 -0.243301 0.113282 -0.059254 0.189917 0.008438 -0.204156 -0.001571 0.002941 0.010699 0.026751 0.000730 0.121398 -0.049311 0.000446 0.002526 0.044467 -0.024872 -0.118964 0.270486 0.165731 0.081781 -0.113973 0.113348 0.035461 0.002046 -0.064393 0.149369 -0.071223 0.080247 -0.024484 0.113307 0.006243 0.033832 0.037743 -0.049076 0.064532 -0.133170 -0.037377 -0.080006 0.145127 -0.097143 -0.104888 -0.114645 -0.038833
in -0.125000 0.062500 -0.247088 0.032544 -0.117233 -0.062500 0.124909 0.064889 -0.002334 0.067810 -0.125000 -0.125000 -0.125000 0.065360 -0.033286 -0.124689 0.125000 0.029998 0.125000 -0.072470 -0.062500 0.062500 0.062748 -0.031250 0.063544 -0.125000 0.100882 -0.100412 -0.034842 -0.157657 0.062500 -0.125000 -0.110872 -0.062500 0.117908 -0.125000 0.250000 0.109749 0.125000 -0.125000 -0.041689 0.036568 -0.125000 0.004930 0.068261 -0.062500 0.106132 -0.016490 -0.201241 0.062500 0.062500 -0.062500 -0.062500 -0.062500 -0.112864 0.062500 -0.062904 -0.125000 0.108060 -0.125000 -0.036134 0.062500 -0.068141 -0.062500 0.235076 0.120984 0.038611 0.074203 0.123678 -0.125000 0.087610 0.093425 -0.119931 0.125000 0.114240 -0.062500 -0.097559 0.070977 -0.125000 0.062500 0.062500 0.099768 -0.093790 0.062500 -0.115778 -0.001559 0.110034 0.062500 -0.056433 0.072304 -0.003908 0.084250 -0.062500 0.120730 0.125000 0.062500 -0.125000 0.062500 -0.081597 -0.064707
March -0.001191 0.015600 -0.219787 0.093700 0.169057 0.042108 0.045209 0.121591 -0.123500 -0.001792 0.019924 0.032863 -0.022702 0.067191 0.123950 -0.041509 0.061407 -0.135252 -0.025694 0.079471 -0.066792 -0.176191 0.029486 -0.026661 0.005932 -0.010283 -0.150954 -0.048663 -0.007110 0.045524 -0.158546 0.031594 -0.128121 0.040207 0.162044 0.101699 0.137848 -0.057874 0.023922 -0.217901 0.065327 0.073708 -0.088485 0.117015 -0.060327 0.002930 -0.062424 0.024030 -0.276778 0.090090 -0.037427 -0.071232 0.022605 -0.082723 -0.071330 0.123421 0.023668 -0.033357 -0.043423 -0.144230 0.074604 0.137814 -0.128571 -0.017576 0.052832 -0.022840 -0.007825 -0.113705 -0.204311 -0.155822 0.001588 0.019373 -0.182170 0.041339 0.068502 0.032102 -0.063212 0.195791 -0.131033 -0.071107 -0.074729 -0.067387 -0.054442 0.221961 0.019190 0.044772 -0.122655 -0.034608 -0.026329 -0.006211 -0.023153 -0.153508 0.021786 0.074490 -0.031076 -0.174344 0.150129 -0.081033 0.132945 0.100509
2007 0.067200 -0.005899 -0.189178 0.109383 0.083555 0.081570 -0.029949 0.107071 -0.132457 -0.009126 0.004327 -0.004138 -0.002582 0.028233 0.165082 -0.031325 0.045556 -0.129644 0.026303 0.109911 -0.042216 -0.248037 -0.047461 0.016015 0.006752 -0.033261 -0.090368 0.000897 0.036820 0.036731 -0.165126 0.071778 -0.064791 0.046559 0.043650 0.104303 0.160846 -0.053380 -0.057348 -0.171635 0.152720 0.103906 -0.019151 0.088292 -0.095622 0.071044 -0.092387 0.009139 -0.192058 0.099556 -0.018402 -0.045831 0.119548 -0.010085 0.052453 0.096748 0.072191 0.063480 -0.015907 -0.067581 0.115208 0.082791 -0.136449 0.061277 -0.076600 -0.055674 0.036316 -0.131597 -0.352612 -0.057351 0.012623 0.004084 -0.168403 0.039765 -0.015271 0.020673 -0.018439 0.176654 -0.150540 -0.145172 -0.064809 -0.059522 -0.002257 0.215855 0.011003 0.044551 -0.073451 0.012288 -0.013611 -0.032852 -0.045348 -0.120545 0.037416 0.025978 -0.025269 -0.106503 0.175659 -0.081963 0.223094 0.111972
programs -0.133037 -0.107491 0.078082 -0.066966 -0.019263 0.148369 -0.190684 -0.106201 -0.108928 -0.002890 0.041203 -0.045765 0.018879 0.067952 0.001600 0.102795 0.117474 0.145940 -0.083580 -0.063701 0.032312 -0.051662 -0.172237 -0.012939 0.005120 -0.021901 0.100861 0.042945 0.126084 -0.121279 0.098546 -0.005389 0.103869 -0.014753 0.166008 0.088650 0.009707 -0.127733 -0.343822 0.012284 0.085813 -0.033931 0.106610 -0.075233 0.004190 -0.037815 -0.103987 -0.049265 -0.109707 -0.047225 -0.288014 0.079804 -0.075710 0.091231 -0.017800 -0.174648 0.098075 -0.078477 -0.116005 -0.040201 -0.100929 -0.067785 0.027735 -0.071701 -0.078623 0.007978 -0.056719 0.083910 0.020992 0.212816 0.054017 0.083168 0.041741 0.012512 -0.087315 -0.075659 0.141686 0.099487 0.172766 0.039511 0.007059 0.059857 0.002038 -0.044289 0.084108 0.080803 -0.065018 -0.075294 0.097258 -0.061593 0.198189 -0.031702 -0.067246 0.007526 0.067927 -0.048725 0.146093 -0.012020 -0.013670 -0.200927
for -0.110428 0.118912 0.062500 0.032068 -0.125000 -0.008758 0.125000 0.038791 0.014868 -0.062500 -0.017224 -0.125000 0.031250 -0.016287 -0.093750 -0.015701 0.054973 0.062500 0.057872 0.010897 -0.091208 0.193298 -0.125000 0.012619 -0.008717 0.057583 0.062500 -0.112439 0.011637 -0.049515 0.185794 -0.005933 -0.179424 0.010356 0.108340 -0.062500 0.190062 0.184714 0.250000 -0.015658 -0.007934 -0.023107 0.046164 -0.062500 -0.032395 -0.050965 0.125000 -0.032282 0.052104 -0.088402 -0.001743 -0.031250 -0.102240 -0.054752 -0.125000 -0.023631 0.031251 0.015624 0.250000 -0.061820 0.062500 0.094293 -0.096187 -0.062500 0.062500 0.250000 -0.031250 0.015629 0.125000 -0.184024 0.157859 0.125000 -0.134020 0.146605 0.122800 -0.187500 -0.123563 0.056140 -0.049308 0.125000 0.015392 0.062500 0.011807 0.056058 -0.093749 -0.062500 0.125000 -0.036048 -0.094519 0.125000 -0.052079 0.180170 -0.062500 0.062500 -0.000501 0.174214 0.006197 0.062500 -0.002389 0.106712
whether 0.156411 0.040093 0.145921 0.020905 -0.172618 0.063876 0.142759 0.039112 0.001777 -0.025025 -0.110687 0.073663 0.063908 0.065702 0.008771 0.076648 0.011977 0.012464 0.042171 0.031026 -0.086747 -0.008262 0.017101 -0.078342 0.144560 -0.169513 0.003163 -0.230109 -0.059598 -0.123496 0.049233 0.092923 0.037554 -0.030405 -0.005526 0.035198 -0.022663 0.027824 0.161246 -0.176490 0.019640 -0.180641 0.119357 0.077825 -0.011522 -0.054448 -0.055405 -0.073164 0.141323 0.039861 0.154629 -0.026891 0.047429 -0.048215 -0.126339 -0.092090 0.034234 0.080888 0.186072 0.022264 0.219878 0.047341 -0.051762 -0.086404 -0.058009 -0.029881 -0.017973 -0.092148 -0.051334 0.042065 0.127679 0.229128 -0.044565 0.069693 -0.071853 -0.138878 0.051161 -0.092831 0.074011 -0.028435 -0.136898 0.065100 -0.058361 -0.080001 -0.085837 0.122322 0.147151 -0.287543 -0.120020 0.025339 -0.056999 0.077127 -0.093168 -0.047782 -0.050683 0.153123 -0.085073 -0.099598 0.011471 0.188473
legal 0.103619 -0.095537 -0.079472 -0.053101 0.007963 0.135434 0.068321 0.005672 -0.093071 0.048621 -0.009020 -0.010966 -0.118833 0.067487 0.082239 0.089841 -0.141803 -0.069379 0.056585 -0.094451 -0.043279 0.041295 0.078563 -0.028462 -0.160854 -0.119335 0.152133 0.001370 0.122470 -0.059082 -0.047541 -0.132863 0.114571 0.136579 -0.113643 0.075066 0.092269 0.003730 -0.146167 0.276161 0.123324 0.014871 0.167631 0.072292 0.067564 0.080253 0.079389 -0.136955 0.033195 -0.129799 -0.075296 0.008106 0.034345 -0.022459 0.107596 -0.073911 -0.206973 0.007538 -0.040974 0.169512 0.013813 -0.005884 0.085574 0.250036 0.030666 0.022312 -0.043991 -0.076845 -0.009555 0.144823 0.016997 -0.165356 -0.020905 0.166413 -0.033082 0.024142 0.120895 -0.060739 -0.056272 -0.136274 -0.034448 -0.056592 0.178212 0.122259 0.104135 -0.015747 0.108129 0.069798 0.032870 -0.006170 -0.207478 0.101803 0.056757 -0.143747 -0.045962 -0.179996 0.012060 -0.041148 -0.023730 0.069959
research 0.008993 -0.156263 -0.010006 -0.051486 -0.020134 0.235556 -0.078744 -0.030917 -0.089076 0.017570 -0.028779 -0.046249 -0.018059 0.151820 0.090607 0.170428 0.009666 0.056623 0.031138 -0.071272 0.043553 0.016300 -0.091398 0.009840 -0.094471 -0.114620 0.170612 0.027081 0.142046 -0.118113 0.028608 -0.087604 0.097638 0.069396 0.095647 0.109988 0.134300 -0.123824 -0.352719 0.134196 0.209210 0.037641 0.129554 -0.001411 0.030382 0.046438 -0.032011 -0.085789 0.020961 -0.154688 -0.244561 0.042096 -0.012260 0.009902 0.052259 -0.108088 -0.082140 -0.007799 -0.096686 0.044423 -0.004068 -0.023525 0.045207 0.131386 -0.012025 0.015233 -0.063035 0.005200 -0.075497 0.347619 0.110835 -0.055837 0.029558 0.106256 -0.105204 -0.065383 0.137910 0.101130 0.053832 -0.094957 -0.077205 -0.022130 0.085433 0.049411 0.069483 0.051225 0.013021 -0.020226 0.042322 -0.009282 0.059311 -0.007644 -0.003378 -0.120642 0.040482 -0.111862 0.106936 -0.052543 0.038199 -0.104417
nefarious 0.109690 -0.052113 -0.114330 -0.040022 0.008438 0.124113 0.049279 0.037252 -0.062496 0.055351 0.035512 0.023598 -0.119479 0.065486 0.069357 0.023290 -0.175528 -0.128100 0.063086 -0.047604 -0.030834 0.012445 0.097924 -0.056295 -0.129534 -0.084230 0.081405 -0.020939 0.117558 -0.038381 -0.064727 -0.130215 0.102912 0.151066 -0.172030 0.047695 0.077026 0.029941 -0.163658 0.262223 0.142329 0.027864 0.181397 0.082949 0.110661 0.110423 0.030588 -0.107063 0.015968 -0.064850 -0.060455 0.033562 0.074911 0.015909 0.126831 -0.052193 -0.236336 0.041341 -0.050292 0.121192 -0.006636 -0.023337 0.069675 0.222581 0.024670 0.005566 -0.011843 -0.073419 -0.040842 0.125671 -0.035338 -0.171706 -0.032279 0.179437 -0.014526 0.003032 0.128455 -0.059459 -0.088669 -0.123416 -0.021177 -0.066387 0.239206 0.113578 0.074073 -0.076980 0.052643 0.130045 0.020111 -0.054314 -0.204829 0.083774 0.066843 -0.151137 -0.050532 -0.167553 -0.013939 -0.055029 0.022634 0.062119
purposes -0.131276 -0.083378 -0.011349 -0.078041 -0.055762 0.135738 -0.179359 -0.128333 -0.056304 -0.078628 -0.002637 -0.062062 0.016343 0.152518 0.036883 0.082728 0.075765 0.157316 -0.090516 -0.046875 0.047792 -0.022359 -0.143881 0.009732 0.019708 -0.042284 0.131402 -0.017767 0.133843 -0.116235 0.085311 -0.011422 0.065737 -0.026769 0.218749 0.096457 0.061788 -0.180980 -0.359654 0.019099 0.107679 -0.080282 0.127446 -0.085001 0.045755 -0.007268 -0.096545 -0.023333 -0.033904 -0.062008 -0.284210 0.067630 -0.068018 0.068683 0.003277 -0.117617 0.103777 -0.031237 -0.146284 -0.020092 -0.048447 -0.061244 0.007746 -0.023753 -0.030883 0.005754 -0.066245 0.078331 -0.010099 0.220819 0.053849 0.063604 0.063025 0.042729 -0.107699 -0.054620 0.099089 0.198748 0.112742 0.027236 -0.078737 0.008017 -0.000636 -0.005273 0.029730 0.068747 -0.123404 -0.088574 0.058106 0.003374 0.197349 -0.018682 -0.089227 -0.083727 0.052967 -0.047529 0.093724 -0.049275 0.025303 -0.188697
resources -0.101691 -0.074741 0.022504 -0.083211 -0.057768 0.102783 -0.203286 -0.153891 -0.086442 -0.060017 -0.004644 -0.055531 -0.009406 0.106786 0.039003 0.068348 0.045121 0.167415 -0.001229 -0.055992 0.041057 -0.070084 -0.119048 0.021250 -0.023776 -0.025084 0.174559 -0.005614 0.104018 -0.107032 0.073171 -0.031069 0.123916 -0.046280 0.152187 0.099345 0.071472 -0.141858 -0.378730 0.041845 0.122085 -0.092599 0.149536 -0.080340 0.058762 0.002926 -0.100886 -0.020485 -0.071491 -0.061648 -0.295186 0.091266 -0.028811 0.134689 0.026416 -0.132502 0.095211 -0.047257 -0.097914 0.027023 -0.081287 -0.053368 0.043360 -0.019896 -0.036642 0.010080 -0.069484 0.064624 0.024168 0.247474 0.001879 0.029829 0.087728 0.051033 -0.115614 -0.049720 0.128808 0.147135 0.111863 0.009130 -0.067385 0.011039 0.057661 0.027875 0.062551 0.081839 -0.046547 -0.063356 0.068334 -0.015381 0.185571 -0.052266 -0.060494 -0.099739 0.072486 -0.064813 0.076209 -0.022750 0.042424 -0.199856
. 0.007218 0.125000 0.028476 -0.062500 -0.008010 -0.062500 -0.125000 -0.049437 -0.017455 -0.125000 -0.002925 -0.125000 0.033552 -0.062500 -0.062500 -0.125000 0.018041 0.125000 0.044879 0.062500 0.062500 -0.062500 0.085547 0.062500 0.062500 -0.062500 0.053629 0.125000 0.040693 0.053464 0.125000 0.249163 -0.062500 -0.015978 -0.100325 0.125000 -0.125000 -0.024393 -0.050409 0.075459 0.086899 0.062500 -0.080863 0.053861 0.082785 0.067138 -0.087427 0.062500 0.119711 0.125000 0.038368 -0.062500 -0.125000 0.062500 0.076941 -0.062500 -0.100469 -0.125000 -0.125000 -0.062500 0.032729 -0.125000 -0.125000 -0.062500 0.212580 0.030479 -0.013743 0.041099 -0.125000 -0.125000 -0.062500 -0.125000 -0.065411 -0.073836 -0.043603 0.125000 -0.233291 0.215391 -0.062500 0.081120 -0.125000 -0.125000 -0.125000 0.062500 0.062500 0.242155 -0.125000 0.073993 -0.125000 0.043234 -0.025024 0.125000 0.125000 0.125000 -0.125000 -0.125000 0.069978 0.059621 -0.125000 0.125000
Controlled 0.086083 0.085988 0.036337 -0.076182 0.137818 0.069274 0.055085 0.144849 -0.090201 0.057218 0.017143 -0.068007 -0.100133 0.004709 0.075809 -0.182942 0.030303 0.059855 -0.075849 -0.050471 0.043314 0.263133 -0.049350 0.039503 -0.052029 -0.011611 0.131037 0.135751 -0.106894 0.199002 -0.074550 0.108034 0.000606 0.084417 -0.043670 -0.124168 0.046864 -0.117996 0.079964 -0.016758 0.039898 0.247567 -0.099360 -0.165247 0.150182 -0.174043 0.015661 0.152825 -0.010240 0.053909 0.064487 -0.011341 0.075083 0.012255 0.054172 -0.147130 -0.192692 0.147752 0.080255 0.020404 0.008973 0.089020 0.128594 0.033867 0.029379 -0.058502 -0.041100 -0.086475 0.018860 0.052321 -0.018454 -0.043694 -0.049414 -0.160468 -0.141173 -0.010883 -0.013491 -0.033992 -0.087586 -0.120532 0.145037 -0.045076 0.063505 -0.144034 0.095971 -0.038326 -0.104174 0.146250 -0.078972 0.034554 -0.228112 -0.138570 0.153523 0.028213 -0.053927 0.028109 0.156324 -0.025553 0.032316 -0.054131
No 0.060525 0.111635 0.015217 -0.101626 0.126513 0.051683 0.157409 0.059671 -0.035807 0.027855 0.013495 0.081965 -0.136821 0.018583 0.075962 -0.144106 -0.008118 0.037703 -0.134611 -0.035191 0.007787 0.305112 0.067234 -0.058956 -0.006106 -0.025943 0.064016 0.058033 -0.225582 0.137854 -0.071615 0.108076 -0.050505 0.048408 -0.043610 -0.099137 -0.013075 -0.070154 0.115276 -0.077648 0.021583 0.106867 -0.184938 -0.107401 0.205611 -0.102392 -0.059972 0.158958 0.089908 0.117891 0.164068 0.074266 0.124434 0.022427 -0.063243 -0.077331 -0.116471 0.212764 0.106198 -0.051011 0.079953 0.107501 0.104570 -0.071425 0.049058 0.006957 -0.056419 -0.070107 0.122195 0.056288 0.033986 -0.046045 -0.024744 -0.125345 -0.199517 -0.028139 0.059151 -0.040247 -0.074531 -0.076138 0.082339 -0.083618 -0.055391 -0.227417 0.024692 -0.006860 -0.147063 0.004395 -0.104553 0.022059 -0.176849 -0.126830 0.075562 0.032917 -0.093658 0.020030 0.089046 0.008140 0.072804 0.057265
clinical 0.109870 -0.070985 -0.083159 -0.033992 -0.004406 0.145689 0.056009 -0.018712 -0.109152 0.027890 -0.009874 0.012664 -0.128141 0.076817 0.076141 0.095045 -0.160759 -0.046046 0.078882 -0.077259 -0.041476 0.048633 0.084203 -0.015480 -0.166353 -0.102120 0.190729 -0.024973 0.063008 -0.065660 -0.029411 -0.147448 0.102346 0.121134 -0.109580 0.072694 0.103446 -0.006045 -0.147175 0.281320 0.120845 0.001649 0.143485 0.064180 0.070319 0.087172 0.058151 -0.113191 0.036669 -0.123790 -0.086762 0.028794 0.035035 -0.023996 0.096047 -0.070251 -0.192039 -0.001833 -0.009061 0.163257 0.029532 0.003543 0.094845 0.244912 0.046723 0.026963 -0.072253 -0.063445 0.038423 0.150075 0.007196 -0.186107 -0.020704 0.180018 -0.036749 0.016430 0.118492 -0.048212 -0.065512 -0.122395 -0.042605 -0.067522 0.153250 0.149446 0.115810 0.021077 0.119481 0.058789 0.025792 0.014768 -0.216570 0.065188 0.073396 -0.137360 -0.052978 -0.192344 0.014579 -0.023045 0.015505 0.064282
laboratory -0.007540 -0.199486 -0.089458 0.023542 -0.004997 0.104238 -0.141556 0.049991 -0.133079 0.013451 0.128399 0.056411 -0.048480 0.067914 -0.042404 0.136556 -0.111269 -0.040254 0.167148 -0.097878 0.057029 0.038571 -0.036621 0.057155 -0.168554 -0.107396 0.057165 0.005265 0.052463 -0.047057 0.038971 -0.218344 0.086706 0.079742 -0.011652 0.087268 0.125233 -0.094766 -0.314086 0.177515 0.110148 0.023827 0.185780 0.029361 0.093418 0.013733 -0.080876 -0.021760 0.031915 -0.085193 -0.159898 -0.024068 -0.098017 0.000089 0.148715 -0.059871 -0.152918 -0.102760 -0.028838 0.061410 -0.117604 -0.015494 0.132750 0.104884 -0.012907 -0.041801 -0.084095 0.006979 0.025629 0.278447 -0.094193 -0.154315 -0.022925 0.068503 -0.039830 -0.080784 0.090207 -0.076439 0.082393 -0.049530 -0.001736 0.033058 0.159783 0.066776 0.013186 0.002102 0.103338 0.099816 0.061535 -0.094634 -0.072767 0.022588 0.104731 -0.029610 0.029656 -0.222704 0.044740 -0.065099 -0.004311 -0.089456
studies -0.113896 -0.119046 0.014837 -0.057614 -0.009472 0.205345 -0.173545 -0.087874 -0.089509 -0.029421 0.001363 -0.066777 0.030877 0.127514 0.043331 0.116116 0.101950 0.115015 -0.101199 -0.045884 0.059324 -0.025602 -0.155227 -0.028333 0.006963 -0.057970 0.104125 0.025162 0.150304 -0.134766 0.076014 -0.009458 0.078538 0.010846 0.196536 0.095828 0.053928 -0.153330 -0.372183 0.032560 0.123428 -0.026501 0.105537 -0.058334 0.005152 -0.000740 -0.077195 -0.047597 -0.056942 -0.092523 -0.294862 0.073252 -0.037505 0.062952 -0.006830 -0.144639 0.066601 -0.038407 -0.148724 -0.037823 -0.042483 -0.062878 0.001659 0.001731 -0.041368 0.003866 -0.061820 0.075226 -0.045700 0.242017 0.080163 0.075417 0.049517 0.045559 -0.101509 -0.069488 0.120220 0.139299 0.113626 -0.007833 -0.039388 0.033255 0.012904 -0.021542 0.057509 0.063553 -0.106064 -0.091161 0.061580 -0.036197 0.197562 -0.036517 -0.093755 -0.050838 0.064901 -0.045411 0.133562 -0.039100 0.011397 -0.170255
trials -0.080669 -0.078193 0.019655 -0.028620 0.013535 0.169488 -0.153895 -0.063321 -0.073198 -0.018941 0.024041 -0.066421 0.046821 0.144273 0.039741 0.132351 0.086430 0.101464 -0.075459 -0.031642 0.045246 -0.067986 -0.156945 0.001343 -0.014961 -0.039080 0.035324 0.030605 0.133314 -0.122047 0.059166 -0.028467 0.059044 0.009503 0.191833 0.118458 0.064048 -0.183775 -0.355856 0.010029 0.125445 -0.046393 0.134271 -0.053544 0.014732 -0.018844 -0.088992 -0.022304 -0.122184 -0.065253 -0.298111 0.041003 -0.059702 0.061814 -0.007663 -0.123465 0.052522 -0.033248 -0.152960 -0.067206 -0.039835 -0.030225 -0.010034 -0.045250 -0.072948 0.014989 -0.051879 0.053344 -0.070360 0.233122 0.095810 0.074741 0.057962 0.020565 -0.076569 -0.073748 0.128600 0.149971 0.153747 -0.034949 -0.061378 0.019890 0.036725 0.006492 0.035530 0.074081 -0.108869 -0.070247 0.046536 -0.072633 0.205406 -0.095855 -0.101536 -0.040521 0.086313 -0.077911 0.144821 -0.071083 0.006890 -0.202150
have -0.074160 -0.013021 0.048763 -0.000976 0.062499 -0.042989 0.009186 0.051867 0.250000 0.104167 -0.187500 0.046875 0.208333 -0.093750 0.001665 0.194893 -0.016610 0.023437 -0.011040 0.062500 0.026358 -0.071108 -0.047815 0.046876 0.015625 0.052082 -0.078631 0.095481 0.099364 0.052083 0.008464 0.206771 0.093750 -0.005491 -0.021887 -0.125000 -0.019963 0.125000 0.018761 -0.187500 0.093750 0.052766 -0.023438 -0.025180 -0.187500 0.125000 0.103809 -0.001826 0.178992 -0.045256 0.011700 0.012121 -0.104167 -0.098339 -0.176223 0.187500 0.024947 0.093750 -0.046875 0.015625 0.047619 0.053410 0.093750 -0.012072 -0.001758 -0.097171 0.046875 0.052132 0.046875 0.042391 0.093750 0.021076 0.050616 -0.187500 0.042269 0.104166 -0.101075 0.061538 0.093750 0.104164 -0.051704 -0.187500 -0.062500 -0.168106 -0.093750 -0.004523 0.124999 -0.062500 0.208333 0.031250 0.116018 0.031251 -0.059622 -0.187500 0.187500 0.125000 -0.096663 0.093750 -0.093751 0.104167
demonstrated 0.104907 0.040144 -0.100919 -0.085334 0.080741 0.004051 0.154567 -0.062132 0.152441 0.075646 -0.197267 -0.030316 0.089506 -0.160059 0.019930 -0.085937 0.109742 0.064847 -0.099159 0.037695 -0.191483 -0.041753 -0.049976 -0.074557 0.107012 -0.007893 -0.043399 -0.024952 0.203529 0.030370 -0.040763 0.057212 0.031277 0.103720 0.040170 -0.008379 -0.031923 0.081875 0.010207 0.050483 -0.054788 -0.081498 0.099640 0.026404 -0.103528 0.006476 0.232206 -0.017042 -0.021582 0.003698 -0.009155 -0.080834 0.110829 -0.149248 0.030819 -0.187908 -0.190766 0.147457 -0.065375 0.163577 0.040077 -0.185473 0.000157 -0.008469 0.004615 0.035042 -0.009709 0.151447 -0.053530 -0.001557 0.050738 0.086099 -0.035205 -0.162564 0.270883 0.157412 0.021672 -0.072355 0.161805 0.118737 0.004418 -0.084051 0.092139 -0.113410 0.055393 -0.019863 0.120748 -0.062116 0.054876 0.049505 0.006562 0.062237 -0.147789 -0.059372 -0.046134 0.209499 -0.076431 -0.088875 -0.150587 -0.038757
been -0.104166 0.013420 -0.093750 -0.104167 0.208960 -0.100271 0.015843 -0.093750 0.052081 0.104165 -0.093750 -0.051935 0.051766 -0.187500 -0.025981 -0.052081 -0.016497 -0.013734 -0.187500 0.052083 -0.003318 -0.156250 0.152921 0.001611 0.062500 -0.093750 -0.124999 0.104167 0.156248 0.079249 0.062499 0.168783 -0.040825 -0.080658 0.104167 0.156251 -0.078534 0.054685 0.202768 -0.015658 0.093750 -0.007088 0.046875 0.104468 -0.079346 0.104166 0.158337 -0.052083 -0.093750 -0.096418 0.104166 0.011585 0.083654 -0.011779 -0.086574 0.048012 -0.103281 0.024762 -0.062498 0.187500 -0.025469 -0.129366 0.031250 -0.104166 0.052083 -0.093750 0.051465 0.026040 -0.002909 -0.107577 -0.093750 0.046875 0.104166 -0.156249 0.104165 0.187500 0.002702 0.004054 0.052083 -0.084800 0.011886 -0.158190 -0.027996 -0.093750 0.023437 0.069546 -0.077164 0.078125 0.053709 0.054687 0.208333 0.042121 -0.208333 -0.052083 0.187500 0.104166 -0.052084 -0.052009 -0.187500 0.031250
DBT 0.030114 0.026810 0.167510 -0.013601 -0.056773 0.089488 -0.121487 -0.085112 -0.074830 0.004704 -0.008546 -0.068326 0.034559 -0.004169 0.113466 0.060673 0.035046 0.059522 0.005457 -0.102499 0.066615 -0.086764 0.127277 -0.022741 -0.019542 0.007717 0.093500 0.063772 -0.190158 -0.078605 -0.093670 0.174012 0.127569 -0.108571 -0.072290 0.028912 -0.069587 -0.020614 -0.208021 -0.136271 0.091975 -0.017308 -0.066915 -0.034904 0.006014 -0.012879 -0.146492 0.082525 -0.020480 0.037075 -0.080003 0.174290 0.207173 0.219001 0.034619 -0.056696 0.102878 0.124913 0.029860 -0.008949 0.088243 0.052875 -0.016806 -0.015537 -0.069087 -0.090754 0.028530 -0.093159 -0.043546 0.187338 0.032972 -0.055325 0.050049 -0.032163 -0.284710 -0.054386 0.198460 -0.103531 -0.076678 -0.261050 -0.051389 -0.012294 0.041381 -0.068800 0.018093 0.109582 0.017202 -0.148420 -0.050013 -0.130191 0.015639 -0.220817 -0.043818 -0.002649 0.145337 0.026386 0.079937 0.123276 0.136699 0.046213
excellent 0.140153 -0.010988 -0.134980 -0.080815 0.053502 0.041058 0.136921 -0.008357 -0.054537 0.060449 -0.014606 0.030046 -0.139587 -0.039245 0.057445 -0.029525 -0.161816 -0.091763 -0.027096 -0.005411 -0.140656 -0.027811 0.172016 -0.107152 -0.105974 -0.079890 0.062151 -0.025082 0.130450 0.013035 -0.078256 -0.099826 0.083204 0.144487 -0.197289 0.085340 -0.004447 0.095650 -0.039439 0.278301 0.060823 -0.017132 0.166847 0.121155 0.084334 0.110965 0.110542 -0.109634 -0.050004 -0.035558 0.020638 0.025706 0.146865 -0.023227 0.128130 -0.097307 -0.249970 0.065056 -0.021379 0.182097 -0.008067 -0.093364 0.068934 0.146851 0.039140 0.037346 -0.011617 -0.060974 0.016355 0.017415 -0.058070 -0.134121 -0.005937 0.117728 0.078620 0.083081 0.150270 -0.090180 -0.064528 -0.097808 -0.004072 -0.077234 0.208204 0.070409 0.117110 -0.034112 0.075325 0.114247 0.012578 -0.015836 -0.206768 0.095349 0.003599 -0.137010 -0.105500 -0.106241 -0.086797 -0.057980 -0.018111 0.116024
's 0.062500 0.025802 0.021313 -0.015624 0.122920 -0.023436 0.007828 0.024177 0.041972 0.093750 -0.031244 0.046875 0.012650 -0.092921 -0.031250 -0.037164 -0.023437 -0.051487 0.125000 -0.094603 0.046875 0.240515 -0.187500 -0.031250 0.027194 0.107003 -0.046875 0.124999 -0.189942 0.208781 -0.093750 -0.021871 -0.015623 0.187500 -0.041525 -0.191079 0.093750 -0.015623 0.062500 -0.015632 -0.187500 0.100404 -0.187500 -0.093750 -0.198322 -0.003736 0.043389 -0.015626 0.031250 -0.047956 -0.024035 0.046875 -0.093751 -0.049972 -0.093714 -0.047564 0.062500 -0.013306 -0.047017 0.046874 0.049714 -0.048291 0.093748 0.143226 0.001058 0.187500 0.007293 0.049710 0.062499 0.015625 0.102504 -0.062499 -0.093788 -0.185545 0.039985 0.088869 -0.093750 -0.045215 0.093750 0.187500 0.289635 0.000681 0.005498 -0.023436 0.102680 0.000823 0.121470 0.046848 0.052188 0.026721 -0.062500 -0.015624 0.117189 0.110082 0.084194 0.093750 0.187500 0.217191 -0.121809 0.002856
effectiveness -0.105712 -0.103381 -0.161184 -0.047740 -0.081903 0.087038 -0.158378 -0.153425 -0.021756 -0.120874 -0.042140 -0.029486 0.022246 0.180121 0.040154 0.046396 0.013380 0.091854 -0.001588 -0.038470 0.076728 0.001721 -0.061508 0.060325 -0.009713 -0.062597 0.107861 -0.088563 0.083199 -0.005485 0.054303 -0.050341 0.035989 -0.000246 0.228514 0.112863 0.127639 -0.237956 -0.377056 0.023878 0.107109 -0.112453 0.181682 -0.088443 0.093873 0.060399 -0.080418 0.079426 0.077624 -0.085729 -0.191192 0.027400 -0.060859 0.003191 0.078894 -0.005235 0.018850 0.006572 -0.131692 0.023569 0.006699 -0.030580 -0.010384 0.084439 0.040336 -0.037047 -0.051460 0.045218 -0.048237 0.276352 -0.039184 -0.007447 0.088456 0.034005 -0.125800 -0.003870 0.053654 0.216522 0.031366 0.005600 -0.157438 -0.048225 0.063512 0.051459 -0.067802 0.042917 -0.058083 -0.074502 0.008958 0.058649 0.133145 -0.018593 -0.057844 -0.177331 0.060563 -0.087237 -0.010032 -0.043101 0.109523 -0.139994
solution -0.113654 -0.156228 -0.149063 0.000558 -0.089991 0.051535 -0.204591 -0.101501 -0.029208 -0.078083 0.062154 0.101023 0.076368 0.100162 -0.064009 0.069653 -0.009002 0.029084 0.089328 -0.004043 0.043631 0.005298 -0.051567 0.058598 -0.041977 -0.021129 0.027774 -0.086235 -0.007195 0.060221 0.093293 -0.137970 0.007079 0.001389 0.159896 0.104536 0.095598 -0.202118 -0.375588 0.006343 0.128308 -0.041195 0.173846 -0.080408 0.085083 0.042667 -0.163984 0.149834 0.088992 -0.047118 -0.152847 -0.009838 -0.091286 -0.032507 0.173579 -0.020051 -0.118113 -0.016010 -0.085327 -0.004656 -0.069835 -0.028678 0.035207 0.000544 0.010663 -0.073000 -0.065858 0.047738 -0.002313 0.367694 -0.150045 -0.062043 0.060010 0.007256 -0.052199 -0.046088 0.064533 0.126675 0.109828 0.103233 -0.084452 -0.058380 0.091528 -0.023983 -0.082338 0.062239 0.042309 -0.033135 0.004715 -0.053386 0.072500 -0.028600 0.014472 -0.084222 0.049839 -0.140415 -0.023029 -0.028756 0.121251 -0.132157
people -0.208326 -0.067707 0.112532 -0.008897 -0.019311 0.100740 -0.229151 -0.079853 -0.071627 -0.021931 0.109332 -0.118621 0.071031 0.031615 0.011014 0.098215 0.050738 0.018040 -0.153310 -0.138171 0.115395 -0.120067 -0.029252 -0.092008 0.011745 0.017822 -0.014560 0.093826 0.093749 -0.237628 0.013314 0.061914 0.136149 -0.089413 0.004454 0.014396 -0.095029 0.037744 -0.291664 0.046563 0.011634 -0.084791 0.062492 -0.030401 -0.002280 -0.012327 -0.084306 -0.075198 -0.112498 -0.029367 -0.229161 0.118050 -0.000665 0.233293 -0.011031 -0.093982 0.175801 -0.011896 -0.182944 -0.072912 -0.104176 -0.019254 -0.049755 -0.007661 -0.101110 -0.083257 0.002542 0.041546 -0.014287 0.014465 0.017595 0.020961 0.043749 0.062570 -0.160717 -0.039073 0.116057 -0.104121 0.063800 -0.118012 0.007374 0.112991 0.044035 -0.022866 0.021170 -0.035136 -0.128854 -0.078686 0.093516 -0.208336 0.187500 -0.019612 -0.137512 0.043764 0.116695 -0.043356 0.102529 0.029649 -0.090355 -0.076141
with 0.169546 0.062500 0.052545 0.062500 -0.183602 0.007812 0.164840 0.093750 0.125000 0.015626 -0.050691 0.002055 0.031250 0.093750 -0.196683 -0.010650 -0.015626 0.095565 0.098271 0.093750 -0.002159 0.093750 -0.187500 -0.047340 0.093750 -0.091293 0.031382 -0.063552 -0.012230 -0.058831 0.125000 -0.048878 -0.062500 -0.029087 0.001936 -0.125000 0.187715 0.186160 0.062500 -0.006995 -0.062500 -0.023438 -0.122168 -0.100411 -0.053893 0.047344 0.125000 0.009015 0.094396 0.002299 0.094111 -0.004677 0.003222 -0.096623 -0.193069 0.047296 0.187500 0.002193 0.125000 -0.094355 0.048766 0.094465 -0.020495 -0.031250 0.053198 0.186741 0.003711 0.052362 0.095756 -0.187500 0.183311 0.125000 -0.094108 0.171823 0.187500 -0.030626 -0.188732 -0.025052 0.013655 0.096772 -0.031250 0.098124 -0.062500 0.031389 -0.047938 -0.094144 0.187370 0.062500 -0.007403 0.185862 0.001896 0.187500 -0.047314 0.034087 0.046875 0.125000 -0.094924 0.037197 0.016235 0.031250
borderline 0.113928 -0.014664 -0.218333 -0.048188 0.018131 -0.007889 0.013360 -0.047224 -0.089775 -0.038586 0.023077 0.088090 -0.163289 0.022213 0.011842 0.006013 -0.264634 -0.061950 0.030223 -0.005971 -0.047224 -0.016092 0.168109 -0.073230 -0.128407 -0.099190 0.062540 -0.068386 0.004199 0.032748 -0.011358 -0.166840 0.056159 0.077644 -0.177800 0.107182 0.038919 0.004334 -0.074790 0.274046 0.079635 -0.103593 0.215065 0.075346 0.187175 0.141900 -0.023195 0.000669 0.009016 -0.018843 0.051519 0.049188 0.133236 0.027952 0.142822 -0.049789 -0.161736 0.087706 -0.027186 0.193603 0.000836 -0.076643 0.140313 0.152010 0.001003 0.008225 -0.082418 -0.066604 0.066796 0.101468 -0.144838 -0.154597 0.105313 0.037305 -0.049585 0.053952 0.138243 -0.006343 -0.022148 -0.096773 -0.031833 -0.063064 0.162620 0.085813 0.022407 0.023603 0.027262 0.138888 -0.012211 0.014769 -0.143767 0.057227 -0.011114 -0.178650 -0.077487 -0.167708 -0.070967 -0.082102 0.061530 0.057696
personality -0.068628 -0.114658 -0.116081 -0.019722 -0.065977 0.146196 -0.174549 -0.076250 -0.009611 -0.078745 0.088408 0.068706 0.049116 0.147850 -0.024678 0.026880 -0.058691 -0.009017 0.077068 -0.054711 0.116845 0.050640 -0.016146 -0.085438 0.027527 -0.021198 0.020284 -0.086474 0.031006 -0.107631 0.047311 -0.127738 0.030485 0.040992 0.085816 0.078103 0.019776 -0.103518 -0.392304 0.132792 0.126288 -0.069076 0.158921 -0.020084 0.114433 0.077339 -0.167468 -0.006596 0.132397 -0.124882 -0.244224 0.052694 0.010108 0.090224 0.089700 -0.054378 -0.058522 -0.036989 -0.161449 -0.003009 -0.025481 -0.081129 0.019504 0.182900 0.022064 -0.022717 -0.037098 0.082386 -0.065715 0.316021 -0.116357 -0.081670 0.058965 0.136949 -0.101029 -0.074770 0.091012 0.096038 0.009694 0.017369 -0.079218 0.004606 0.169662 0.044673 -0.016655 -0.082975 -0.083221 -0.029479 -0.019949 -0.053555 0.129925 0.038927 -0.035805 -0.110570 0.026300 -0.094232 -0.019413 -0.018826 0.067946 -0.121660
disorder -0.027199 0.059873 -0.067865 -0.037866 -0.097161 0.075015 -0.244320 -0.139049 -0.037198 -0.099466 0.039167 0.032305 0.036788 0.159874 -0.020523 -0.008456 -0.043627 0.145326 0.099925 -0.007984 0.109872 -0.043503 -0.053304 -0.004602 0.049384 0.034339 0.103423 -0.126868 -0.073390 -0.043268 0.152752 -0.015702 -0.011600 -0.048088 0.137925 0.086266 0.057140 -0.203423 -0.244533 0.026560 0.129531 -0.076815 0.185456 -0.104362 0.112075 0.003242 -0.188808 0.104745 0.012420 -0.061042 -0.231019 0.029754 -0.015193 0.067497 0.050000 -0.083019 -0.025910 -0.025052 -0.131833 0.065566 0.044011 -0.058426 0.038856 0.112821 -0.034638 -0.014521 -0.048222 0.025282 -0.007689 0.281748 -0.102949 -0.026419 0.114089 0.029475 -0.106087 -0.049266 0.080006 0.263105 0.035532 0.038099 -0.116251 -0.050614 0.097258 0.100200 -0.004628 0.069729 -0.039296 -0.011617 -0.044526 0.058196 0.108587 -0.070413 -0.058626 -0.103676 0.098020 -0.080879 0.062650 -0.004804 0.120564 -0.230095
An 0.045250 0.123638 0.058775 -0.108969 0.150661 0.052371 0.155765 0.047326 -0.018112 0.037228 0.000321 0.106675 -0.136261 0.023133 0.093663 -0.122617 0.011211 0.054199 -0.109657 -0.052068 0.016193 0.327324 0.068106 -0.039550 -0.020308 0.004768 0.084634 0.060881 -0.236562 0.126038 -0.072042 0.129688 -0.035110 0.033517 -0.018361 -0.085699 -0.003350 -0.097711 0.111385 -0.084759 0.014257 0.094517 -0.218187 -0.105947 0.207930 -0.144139 -0.035999 0.136156 0.097017 0.115107 0.130156 0.056131 0.094610 0.043743 -0.087422 -0.057382 -0.098816 0.166602 0.080425 -0.005895 0.071116 0.120521 0.129674 -0.057674 0.043501 0.000949 -0.056871 -0.046507 0.133372 0.040236 0.018014 -0.038492 -0.029096 -0.094408 -0.179801 -0.018835 0.044170 -0.038401 -0.112024 -0.049308 0.060197 -0.112641 -0.054354 -0.231434 0.055396 -0.012578 -0.155248 -0.023681 -0.098840 0.029359 -0.178634 -0.131312 0.087611 0.041211 -0.087152 -0.001314 0.105312 0.014465 0.047553 0.056008
If 0.070611 0.145778 0.099407 -0.123196 0.037118 0.076032 0.196557 0.047260 0.041744 0.075475 -0.056550 0.088697 -0.027305 -0.000030 0.051238 -0.173571 0.116307 0.057369 -0.036822 -0.008083 -0.017757 0.233518 -0.041497 -0.077293 0.111307 -0.019372 0.000889 -0.068812 -0.171752 0.057991 0.000092 0.159576 -0.017405 0.012249 0.050534 -0.129141 0.023674 -0.028361 0.106700 -0.222948 0.044498 0.034435 -0.119760 -0.132626 0.169241 -0.138391 -0.065260 0.160484 0.100759 0.163692 0.164693 0.049809 0.101378 0.005584 -0.190917 -0.119915 -0.137415 0.222797 0.118079 -0.107329 0.109731 0.119674 0.012078 -0.140169 0.070396 0.036577 -0.010337 -0.017524 0.057788 0.093751 0.093966 0.106749 -0.076052 -0.094972 -0.102525 -0.107903 0.010220 -0.008658 0.010159 0.070361 0.007658 -0.076249 -0.042913 -0.263421 -0.032593 -0.023449 -0.039080 -0.142648 -0.116271 0.033307 -0.054101 -0.064998 0.018248 0.034229 -0.074730 0.108269 0.069802 -0.017327 0.039620 0.003575
IDIQ 0.112136 0.025440 -0.060717 -0.136053 0.099439 0.176064 0.134857 -0.016050 -0.129233 0.094765 -0.018120 -0.022885 -0.154887 0.021892 0.181358 -0.091380 -0.032212 0.021845 -0.048106 -0.065431 -0.077361 0.153992 0.058611 -0.011207 -0.100176 -0.045733 0.159910 0.066755 -0.066380 0.074193 -0.121598 0.036418 0.035731 0.133784 -0.062019 -0.002410 0.093132 -0.092584 -0.132686 0.081803 0.165348 0.110042 -0.020249 -0.047292 0.145878 -0.000775 0.012231 0.066837 -0.010300 0.054801 0.008023 0.075708 0.163183 0.003949 0.051802 -0.140284 -0.262451 0.186508 0.036187 0.050090 0.069924 0.060757 0.072193 0.085134 0.071618 0.048582 -0.030730 -0.073689 0.004981 0.177323 0.063593 -0.186060 -0.138509 0.012561 -0.137329 0.005773 0.161201 -0.024330 -0.100970 -0.158407 0.048003 -0.155445 0.091587 -0.059607 0.130946 0.039710 0.004423 0.027523 -0.027485 -0.005285 -0.269605 -0.099619 0.082369 -0.040762 -0.083666 -0.112324 0.139238 -0.006663 0.102851 0.031443
honorary 0.064752 -0.140623 -0.108957 -0.049744 0.101356 0.122515 0.082407 0.105283 -0.100681 0.084478 0.099446 -0.038533 -0.105508 0.081108 0.040655 0.026581 -0.129460 -0.169945 -0.098297 -0.064077 -0.023233 0.108311 0.051744 -0.064201 -0.079170 -0.140574 0.003919 0.104104 0.145387 -0.028229 -0.092330 -0.119525 0.021932 0.180316 -0.115502 0.020829 0.011867 0.022061 -0.021411 0.258669 0.058241 0.098574 0.084642 0.118576 0.011474 0.081751 0.076415 -0.173466 0.055896 -0.175231 0.026665 -0.068699 0.016888 -0.084561 0.153498 -0.023510 -0.213156 0.038570 -0.083108 0.076413 0.029258 -0.016907 0.028205 0.257172 0.030241 -0.008582 -0.006293 -0.097742 -0.082881 -0.016910 0.011651 -0.161883 -0.087041 0.104116 -0.049998 0.038484 0.083745 -0.112015 -0.063699 -0.179119 0.054059 -0.001367 0.093485 0.054310 0.080588 -0.109997 -0.026101 0.106851 0.038990 -0.054099 -0.250012 0.136308 0.052720 -0.072280 -0.081618 -0.119278 0.018137 -0.064367 -0.124750 0.131771
contract -0.083021 -0.181236 -0.105498 0.019927 -0.011623 0.059823 -0.084822 0.020593 0.057948 -0.019935 0.081246 0.050833 0.137840 0.144710 -0.035856 0.172573 -0.018442 -0.054653 0.082461 -0.042140 0.048104 0.019279 -0.051278 0.049031 -0.083891 -0.018157 -0.106843 0.003457 0.066305 0.019751 0.040043 -0.170442 -0.046844 0.059457 0.149799 0.132723 0.074427 -0.175954 -0.300708 0.052963 0.189249 0.005832 0.172800 -0.006034 0.040626 0.035260 -0.094484 0.072299 0.098809 -0.145779 -0.163957 -0.120830 -0.155615 -0.057186 0.145557 0.044545 -0.216533 -0.033581 -0.156506 -0.031591 -0.041147 0.042689 0.024354 0.083907 -0.001726 -0.036889 -0.030361 -0.004487 -0.099654 0.338370 -0.035669 -0.118601 0.068773 0.034559 -0.007918 -0.039658 0.041630 0.109664 0.130747 0.019528 -0.108736 -0.085432 0.128330 0.007068 -0.094588 -0.020609 0.002600 0.002283 -0.020595 -0.112076 0.110650 -0.024614 -0.016932 -0.069506 0.066176 -0.164103 -0.016634 -0.083898 0.033947 -0.129851
allows 0.018584 0.044691 -0.019670 -0.056018 0.022749 0.018955 0.103141 -0.060704 0.195749 0.007012 -0.213626 -0.043543 0.101237 -0.037434 -0.019917 0.046783 0.056493 0.128473 -0.028251 0.085032 -0.138226 0.098318 -0.218706 0.011173 0.061043 0.065853 0.051864 -0.016419 0.135647 0.049094 0.012452 0.016076 0.002018 0.090780 0.092615 -0.135970 0.175746 0.067962 -0.031141 0.021700 -0.042589 -0.073092 0.018273 -0.074149 -0.135130 0.012986 0.241414 0.013917 0.079355 -0.056557 -0.069330 -0.051136 -0.028836 -0.167273 -0.036213 -0.096792 -0.026568 0.171738 0.014424 0.088542 0.059573 -0.063226 0.051474 -0.040722 -0.002789 0.141906 -0.077978 0.202946 0.078379 0.005856 0.173606 0.101053 -0.081983 -0.069879 0.223952 0.076745 -0.066092 0.008829 0.169353 0.268991 -0.011178 -0.099021 0.001421 -0.108752 -0.020444 -0.019679 0.166055 -0.105038 0.092515 0.085331 0.021892 0.064171 -0.111767 -0.132515 0.009761 0.236037 -0.049071 -0.028118 -0.122570 -0.025955
' 0.108805 0.104501 0.109329 -0.064241 0.077678 0.054689 0.125317 0.073213 0.018857 0.111045 0.047120 0.185444 -0.081017 -0.050724 -0.016349 -0.092605 0.090091 0.027270 0.052083 -0.087611 0.005196 0.288218 -0.087500 -0.063805 0.057334 0.057489 -0.009664 0.046146 -0.196414 0.161812 -0.059326 0.033213 -0.049400 0.110036 -0.018662 -0.090481 0.003969 -0.072989 -0.003655 -0.109739 0.021124 0.154315 -0.171208 -0.152946 0.093425 -0.156689 -0.175045 0.069461 0.109379 0.159494 -0.001466 0.073444 0.036247 -0.008401 -0.103945 -0.128580 -0.074932 0.061837 0.068458 -0.057296 0.042403 -0.007009 0.118059 -0.045343 -0.093788 0.104518 0.045877 0.008973 0.063265 0.250824 0.119766 0.037710 -0.035250 -0.126667 -0.083584 -0.107665 0.086750 0.019597 0.056624 0.110607 0.187501 -0.050207 0.056261 -0.212092 0.085078 -0.045561 -0.048915 0.078340 -0.055589 -0.015044 -0.056373 -0.056689 0.130185 0.157329 0.002022 0.056153 0.138099 0.098350 0.120758 -0.114893
you -0.082798 0.013263 0.218786 0.028467 -0.076539 0.023616 -0.068547 -0.128952 -0.004556 0.023482 -0.029836 -0.109555 0.139705 -0.079281 0.032990 0.092512 0.094453 -0.008237 -0.086409 -0.116185 0.088948 -0.147962 0.149058 -0.104763 0.015694 0.060854 -0.023816 0.084903 -0.077708 -0.141929 -0.028192 0.193219 0.122099 -0.139679 -0.059928 0.014939 -0.195745 0.097079 -0.110933 -0.119678 -0.013666 -0.113396 -0.062154 -0.004602 -0.121705 0.051803 -0.035130 0.021283 -0.000853 -0.008094 -0.031711 0.165630 0.105995 0.220087 -0.065718 0.028355 0.221376 0.009588 -0.022309 -0.061419 0.061368 0.081121 -0.106767 0.019490 -0.061198 -0.066764 0.043081 -0.062566 -0.030759 -0.009758 0.075132 -0.000779 0.137948 -0.020506 -0.213072 0.026046 0.130494 -0.162659 -0.047271 -0.213506 -0.031757 0.032498 -0.029482 -0.055587 0.013109 0.047645 0.061475 -0.199727 -0.018373 -0.143700 0.134282 -0.081150 -0.131738 0.059212 0.174284 0.012364 0.027570 0.207429 0.043748 0.093863
a 0.062500 -0.062500 -0.189074 -0.115857 0.111849 -0.123981 0.062500 0.031250 -0.062500 -0.121938 0.062500 0.062500 -0.111360 0.062500 -0.123426 0.062500 -0.124705 0.062677 -0.095898 0.062500 -0.062500 0.047354 0.093135 -0.157104 -0.037066 -0.118665 0.062500 0.115847 -0.062500 0.075186 -0.062500 -0.125000 -0.125000 -0.038032 -0.062500 0.062500 -0.125000 0.062500 0.168733 0.125000 -0.062500 -0.062500 -0.125000 0.182307 -0.062560 0.159552 -0.079306 -0.062500 0.062500 -0.125000 0.118969 -0.062500 0.192036 -0.062500 0.121472 0.062500 0.125000 -0.062500 0.125000 0.062500 0.062500 -0.037601 0.062500 0.036557 0.070832 0.082150 -0.116125 -0.115120 0.125000 -0.125000 0.032115 -0.118616 0.113775 -0.250000 -0.125000 0.078471 0.062500 -0.030946 0.068589 -0.125000 0.029418 0.125000 -0.241988 0.062500 0.062500 0.103638 -0.124462 0.006050 -0.062500 0.062500 -0.062500 -0.062500 -0.069768 -0.062500 -0.094599 -0.062500 -0.119989 -0.062500 -0.062500 0.083520
certain 0.125566 -0.020062 -0.093617 0.012289 0.009086 0.032647 0.123265 -0.055574 -0.118003 -0.015163 -0.026003 0.049840 -0.178479 0.034713 0.125023 0.109685 -0.195025 -0.044468 -0.101612 0.020469 -0.130978 -0.028426 0.178948 -0.003957 -0.147442 -0.101416 0.104162 -0.040957 0.040121 -0.102448 -0.098176 -0.124400 0.073097 0.069976 -0.208313 0.100585 -0.020983 0.040530 0.020580 0.302375 0.020937 -0.095967 0.125685 0.112006 0.088706 0.147473 0.108197 -0.130612 -0.020466 -0.001552 0.099441 0.057117 0.083933 -0.015385 0.101316 -0.018069 -0.074344 0.096947 0.020989 0.181025 0.018698 -0.025985 0.075404 0.095283 -0.027509 -0.030927 -0.055402 -0.055334 0.095645 -0.044567 -0.025274 -0.137640 0.014509 0.179507 -0.008405 0.079635 0.147123 -0.128809 -0.089203 -0.148829 -0.044590 -0.045064 0.018537 0.090178 0.056118 0.060882 0.057343 0.039893 0.046857 -0.018507 -0.241770 0.076551 0.012988 -0.144194 -0.136550 -0.114132 -0.094705 -0.097525 -0.004890 0.193695
constant 0.108091 -0.008997 -0.167683 -0.072869 0.013221 -0.009107 0.113142 -0.073038 -0.060366 0.025638 -0.007286 0.087295 -0.153580 -0.017154 0.041576 -0.007997 -0.188889 -0.075133 0.014699 -0.004402 -0.134770 -0.039237 0.185922 -0.065598 -0.137481 -0.063596 0.071020 -0.080505 0.067579 0.056898 -0.056722 -0.142692 0.088585 0.126859 -0.170387 0.123229 0.017027 0.036062 -0.093025 0.264816 0.062294 -0.073983 0.218638 0.069590 0.148107 0.135580 0.045330 -0.048731 -0.040176 -0.015206 0.021411 0.053597 0.096202 -0.017820 0.127908 -0.062432 -0.227101 0.055944 -0.010651 0.170705 -0.024702 -0.070926 0.087664 0.124175 0.045630 0.032915 -0.014851 -0.060529 0.067223 0.081396 -0.107712 -0.147291 0.046993 0.121054 0.042190 0.074406 0.168301 -0.024481 -0.043601 -0.055105 -0.046022 -0.100939 0.217894 0.091798 0.073522 0.004205 0.096944 0.099372 0.011774 0.002168 -0.166012 0.076168 0.022613 -0.176806 -0.091660 -0.164916 -0.121873 -0.035915 0.053511 0.086457
amount -0.180835 -0.115264 -0.255309 0.008879 -0.068179 0.038801 -0.192401 -0.170103 -0.042274 -0.143339 0.000534 0.048348 0.005064 0.128931 -0.054997 0.061562 0.011251 0.037911 -0.053303 -0.026918 0.069462 -0.004980 -0.025798 0.106794 -0.051663 -0.066928 0.039689 -0.114451 0.034115 0.095279 0.101684 -0.067435 0.007317 0.011044 0.234452 0.111760 0.125050 -0.231438 -0.352074 0.007515 -0.004467 -0.108151 0.168665 -0.104782 0.103374 0.060160 -0.080013 0.195959 0.067168 -0.014323 -0.086106 0.018243 -0.140182 -0.116680 0.115984 0.036706 -0.028469 0.008293 -0.118611 -0.003905 -0.035475 -0.045005 -0.026167 -0.018834 0.075301 -0.100913 -0.057910 0.040406 0.074151 0.203290 -0.118886 -0.000816 0.047966 -0.021908 -0.058442 0.039055 -0.001528 0.138393 0.078759 0.093326 -0.138973 -0.048812 0.034904 0.023499 -0.160860 0.077941 -0.011558 -0.040491 0.050978 0.025421 0.055559 -0.017304 -0.019020 -0.120337 0.050090 -0.139025 -0.053073 -0.023663 0.109813 -0.095231
number -0.212526 -0.154600 -0.281249 0.046194 -0.049168 0.057809 -0.218746 -0.145833 -0.070301 -0.116807 0.054681 0.097237 0.003101 0.101566 -0.110810 0.077944 0.022028 -0.001151 -0.093758 -0.031732 0.091392 0.018337 -0.010859 0.085935 -0.048713 -0.086725 -0.014713 -0.093774 0.003342 0.104333 0.124909 -0.066852 -0.031249 0.029738 0.205023 0.091370 0.098700 -0.196426 -0.323842 0.025332 -0.043710 -0.044267 0.125002 -0.088140 0.086547 0.054820 -0.086974 0.212968 0.098221 -0.014064 -0.031288 0.004997 -0.165051 -0.180564 0.144740 0.030337 -0.081765 0.004584 -0.124995 -0.021894 -0.056423 -0.070332 -0.035029 -0.029285 0.070467 -0.140624 -0.040321 0.043747 0.098218 0.194437 -0.145814 -0.003483 -0.005115 -0.023434 -0.034359 0.033968 -0.008634 0.045459 0.089533 0.103915 -0.098211 -0.008651 0.012466 -0.020468 -0.193052 0.062498 0.008574 -0.002361 0.060182 -0.024347 0.005862 0.027030 -0.009327 -0.045352 0.058034 -0.143844 -0.060600 -0.006376 0.075467 -0.058293
stress -0.007696 0.044768 -0.085559 -0.037359 -0.098967 0.041563 -0.131827 -0.183497 0.028957 -0.097279 -0.081121 0.000488 0.029656 0.145186 0.067311 0.031117 -0.064583 0.148696 0.094956 -0.008918 0.041692 -0.085809 -0.005832 0.064371 -0.030884 0.026086 0.180180 -0.111628 -0.017133 -0.027427 0.051935 -0.038420 0.070480 -0.047079 0.084363 0.082081 0.110534 -0.156058 -0.290083 0.068332 0.153210 -0.129332 0.190387 -0.087460 0.110581 0.071736 -0.082081 0.108345 0.018961 -0.064905 -0.217823 0.060734 0.025220 0.080208 0.071072 -0.033397 -0.035952 0.068122 -0.066988 0.088809 0.031003 -0.012524 0.036348 0.069029 0.008838 -0.025944 -0.063501 0.029822 0.020456 0.295013 -0.045197 -0.071077 0.152215 0.036974 -0.090498 0.018469 0.097031 0.202921 0.028737 -0.013621 -0.180842 -0.111637 0.127646 0.112785 -0.015790 0.070272 0.017187 -0.036109 -0.001763 0.061719 0.112862 -0.130430 -0.049251 -0.221828 0.079896 -0.046294 -0.049077 -0.024237 0.159135 -0.182055
process -0.115833 -0.174055 -0.139363 0.016130 -0.046430 0.082073 -0.226615 -0.023957 -0.034090 -0.067239 0.089161 0.099646 0.076007 0.105551 -0.100922 0.122559 0.005580 0.006437 0.078042 -0.015674 0.078111 0.013223 -0.077760 0.059959 -0.053648 -0.058329 -0.027708 -0.066682 0.033114 0.052743 0.142888 -0.134098 -0.004453 0.020497 0.211095 0.117754 0.099977 -0.215353 -0.343493 -0.049728 0.103691 -0.030483 0.172432 -0.055290 0.049132 0.008525 -0.160365 0.126534 0.084579 -0.057021 -0.156690 -0.037129 -0.154925 -0.084888 0.123172 -0.002390 -0.094174 -0.086724 -0.108467 -0.014428 -0.057366 -0.031443 0.053678 -0.017266 0.003297 -0.067734 -0.069109 0.022179 -0.004339 0.319532 -0.125268 -0.007159 0.041142 -0.032972 -0.033469 -0.073305 0.020520 0.133835 0.137785 0.114023 -0.071079 -0.042342 0.068121 -0.026687 -0.107832 0.069069 0.020519 -0.026366 0.016119 -0.048357 0.072509 -0.012289 0.006326 -0.046193 0.081394 -0.169126 0.035875 -0.049079 0.072995 -0.140018
streamlining 0.078972 -0.094687 -0.122545 0.037292 -0.116293 0.114399 -0.003436 -0.117429 -0.011034 -0.031390 -0.143724 0.011743 -0.015470 0.187810 0.049879 0.131303 -0.047139 0.100336 0.099681 0.025193 0.021431 -0.008730 -0.071874 0.065933 -0.047434 -0.144261 0.169828 -0.124221 0.074164 -0.086534 0.025936 -0.147605 0.064927 0.002554 0.066242 0.034993 0.287747 -0.138042 -0.308326 0.102109 0.125980 -0.165067 0.169215 -0.015134 0.078897 0.097575 0.032515 0.041665 0.097481 -0.077388 -0.106842 0.023566 0.001552 -0.053918 0.029523 -0.031616 0.016071 0.087856 0.051602 0.032193 0.045066 0.017573 0.037816 0.002995 -0.020558 0.017094 -0.112258 0.082279 -0.006444 0.318716 0.113000 0.039663 0.063066 0.064259 -0.045336 -0.036124 0.109806 0.007403 0.080092 -0.088135 -0.193638 0.016801 0.048271 0.062292 -0.082562 0.074236 0.130311 -0.023270 0.005578 0.073535 0.073590 -0.022300 -0.059923 -0.218845 0.064465 -0.025025 -0.108091 -0.100662 0.105205 -0.107682
involved 0.117346 0.024687 -0.076740 -0.100642 0.066215 -0.000535 0.160101 -0.088607 0.082455 0.105726 -0.154062 -0.061098 0.014638 -0.174970 0.038397 -0.114333 0.098604 0.025571 -0.045511 -0.001857 -0.186043 -0.110371 0.018496 -0.061515 0.055779 -0.009859 -0.040819 -0.025624 0.235131 -0.001701 -0.040728 0.044691 0.061258 0.097448 -0.019007 0.074323 -0.054911 0.105035 -0.036142 0.149031 -0.041180 -0.057779 0.170180 0.061467 -0.028403 0.005641 0.230667 -0.076120 -0.114447 0.025673 -0.033621 -0.054350 0.160445 -0.083211 0.043093 -0.185561 -0.243247 0.102240 -0.047991 0.168589 -0.035007 -0.212419 -0.037248 0.009055 -0.013977 0.048319 0.049804 0.146517 -0.052518 0.028303 0.016813 0.050853 -0.008905 -0.067444 0.268196 0.137387 0.107930 -0.109387 0.123017 0.028767 -0.010979 -0.035993 0.173703 -0.058860 0.083493 -0.055772 0.153889 0.011222 0.050668 0.023525 0.017970 0.053092 -0.144905 -0.022582 -0.063040 0.145194 -0.105181 -0.089573 -0.104466 -0.064133
, 0.114504 0.031250 0.070009 0.074446 -0.124310 -0.062698 0.121452 0.062550 0.062601 0.060853 0.125201 0.123207 0.086150 -0.060298 -0.056755 -0.057637 0.069327 0.062578 0.131725 -0.125201 -0.062601 0.031250 -0.073390 0.062601 0.047287 0.125201 -0.125201 -0.122660 -0.057593 -0.125201 0.060709 -0.140023 -0.007799 0.031203 0.062625 0.125201 -0.245721 0.062594 0.213931 -0.078063 -0.125201 0.125201 -0.031250 -0.056797 0.062946 -0.059010 -0.232983 -0.125201 -0.142895 0.054836 0.001761 0.042164 -0.119268 -0.067044 -0.091557 -0.049380 0.055185 -0.062691 0.062525 -0.055689 -0.125201 -0.125201 -0.123824 -0.062521 -0.098808 0.061651 0.110585 0.062593 -0.065845 0.125201 0.062597 0.061826 -0.099120 -0.102834 0.079836 -0.086523 -0.038957 0.231280 0.113858 0.098836 0.050934 0.132574 -0.036250 0.125201 0.067292 -0.062875 0.125202 -0.121174 0.125201 0.102538 0.109375 0.059016 0.111153 0.078261 -0.111479 0.095851 0.122457 0.062597 0.060230 -0.125197
outdated 0.165529 0.004638 -0.128105 -0.088348 0.043225 0.038385 0.133114 -0.024888 -0.033144 0.081574 -0.018377 0.032427 -0.121857 -0.071403 0.067599 -0.073310 -0.120070 -0.056879 -0.022323 -0.000431 -0.160575 -0.054076 0.159747 -0.099653 -0.070523 -0.057030 0.049617 -0.037972 0.132462 0.004542 -0.086185 -0.082434 0.087126 0.129430 -0.200254 0.081275 -0.028303 0.084029 -0.058650 0.257703 0.059651 -0.018433 0.185050 0.103292 0.085986 0.078328 0.108337 -0.094324 -0.072228 -0.001131 0.015004 0.019392 0.177002 -0.023088 0.142994 -0.137485 -0.276057 0.089153 -0.024462 0.191745 -0.020892 -0.128236 0.065119 0.114469 0.006601 0.018570 0.018008 -0.029234 -0.005697 0.047928 -0.075406 -0.116766 -0.022035 0.087179 0.109950 0.083064 0.179746 -0.118000 -0.047395 -0.091597 -0.008490 -0.069117 0.232146 0.045462 0.123780 -0.051451 0.083645 0.116556 0.012246 -0.020728 -0.189394 0.075544 -0.006699 -0.126822 -0.101773 -0.052896 -0.097268 -0.075793 -0.009077 0.060492
as 0.104249 0.090384 0.125000 -0.070002 -0.103488 0.093068 0.058326 0.048487 -0.076401 0.020106 0.023457 0.047665 0.062500 0.052640 -0.062500 -0.177296 -0.051041 -0.062500 0.062500 0.062500 -0.003899 0.015625 -0.135011 -0.062500 0.093331 -0.125000 -0.015421 -0.125000 -0.099401 -0.098889 0.201449 -0.057957 0.094283 -0.026461 0.004501 -0.053197 0.098731 0.125000 0.250000 -0.062500 -0.008441 -0.096073 0.063268 -0.003906 -0.052958 -0.016557 -0.102390 0.031250 0.050679 -0.125000 0.250000 -0.022564 0.048372 0.043685 -0.125000 -0.093850 0.007812 0.125000 0.062500 -0.031250 0.128440 -0.009363 -0.093750 -0.051391 0.179400 0.125000 -0.031250 -0.092183 -0.007813 -0.187501 0.030262 0.250000 -0.051497 0.110472 0.055509 -0.093940 -0.250000 0.062500 0.109482 0.186938 -0.062500 -0.002363 -0.091983 -0.033727 -0.096978 -0.048130 0.108011 -0.250000 -0.031250 0.062500 0.054808 0.062500 -0.022280 -0.046939 -0.062500 0.062500 0.006184 -0.044703 -0.176385 0.047996
negotiations -0.005406 -0.114749 -0.009711 -0.005491 0.004394 0.122812 -0.091025 -0.056660 -0.008653 -0.001996 -0.028253 -0.070466 0.110237 0.124567 0.052088 0.146473 0.097723 0.047233 0.030886 -0.023252 0.033426 -0.110679 -0.116672 0.011542 -0.034750 -0.036031 -0.052891 0.023385 0.137205 -0.092248 0.007951 -0.068086 0.033263 -0.006830 0.199514 0.157793 0.098133 -0.197699 -0.332361 -0.019506 0.148167 -0.075099 0.154313 -0.011047 -0.010628 -0.010205 -0.047042 0.009099 -0.093792 -0.108279 -0.232023 -0.044919 -0.028282 0.035769 0.029636 -0.051528 -0.016341 -0.014659 -0.158209 -0.042666 -0.004412 0.026675 -0.059460 0.019892 -0.087207 0.027825 -0.023872 0.014912 -0.189821 0.293852 0.095895 0.056950 0.095612 -0.008256 -0.042878 -0.048029 0.103467 0.125330 0.163119 -0.093324 -0.140661 -0.005364 0.068352 0.034455 -0.005235 0.060076 -0.013678 -0.094859 -0.016173 -0.076047 0.239493 -0.115983 -0.132844 -0.060411 0.111928 -0.099792 0.094381 -0.092748 0.020631 -0.185865
that 0.062500 0.002286 0.158357 0.062704 -0.197857 -0.004215 0.034089 0.015625 -0.003657 -0.062500 -0.056443 0.053300 0.106074 0.015605 -0.062500 0.125000 0.031964 0.015624 0.062500 -0.052157 -0.093750 -0.046875 0.090095 -0.048465 0.093799 -0.093651 0.014287 -0.187500 -0.096723 -0.053763 0.062559 0.150449 0.023438 -0.025113 0.027882 0.093262 -0.184616 0.023075 0.125000 -0.189353 -0.033338 -0.125000 0.096938 0.087288 -0.104030 -0.093988 -0.110354 -0.099469 0.096758 0.051727 0.048255 -0.021240 -0.031503 -0.031250 -0.074243 -0.049020 0.121649 -0.096185 0.212796 0.011731 0.178358 0.016578 -0.060079 -0.048737 -0.089147 -0.050723 0.025178 -0.094009 -0.000603 0.048928 0.093750 0.181965 -0.023791 0.096246 -0.094374 -0.096186 0.077087 -0.062499 0.063311 -0.026135 -0.062500 0.102356 -0.062500 -0.046874 -0.048733 0.187500 0.187500 -0.399350 -0.093750 0.000072 -0.096360 0.062501 -0.093751 0.067512 0.049882 0.102231 -0.094300 0.033815 0.094172 0.182629
can -0.218750 -0.019529 0.109347 0.013360 -0.061270 0.026041 -0.021819 -0.054624 -0.039190 0.039066 -0.062500 -0.015265 0.217573 -0.078561 -0.039449 -0.015629 0.096897 -0.022437 -0.196368 0.004917 0.046875 -0.078853 -0.031118 -0.192077 0.025876 0.146600 -0.005517 0.006033 0.111631 0.162450 0.214482 0.223185 0.104165 0.054686 -0.013863 -0.047728 -0.187500 -0.042415 0.052092 -0.052082 0.078125 0.015476 0.093750 -0.003654 -0.208333 0.093750 0.141029 0.109375 0.005944 0.007045 0.059531 0.013649 -0.187500 0.109374 -0.110037 -0.006510 0.062502 -0.218635 0.062500 0.003268 0.026060 0.182627 0.053138 0.062500 -0.003594 -0.093750 -0.111977 -0.052084 0.080481 -0.104167 0.028675 0.078818 0.218588 0.003394 -0.022441 0.171242 0.077994 0.011631 -0.104167 0.110343 0.109376 0.008558 -0.062500 -0.046875 0.130268 0.013021 0.110337 -0.105416 0.031249 -0.018694 0.040146 0.052104 -0.093750 0.031253 0.078125 -0.031265 0.043172 0.208333 0.125000 0.054686
will -0.228695 -0.021871 0.116063 0.020445 -0.062497 0.030310 -0.020990 -0.059055 -0.036575 0.046852 -0.059321 -0.014452 0.225277 -0.085826 -0.043751 -0.015001 0.101567 -0.019531 -0.184655 0.002528 0.053465 -0.081473 -0.039452 -0.187500 0.030562 0.140528 -0.008919 0.003245 0.114556 0.156250 0.218751 0.229162 0.104173 0.054635 -0.009755 -0.049779 -0.179778 -0.034584 0.041240 -0.055299 0.072755 0.006918 0.093753 -0.011811 -0.198964 0.095067 0.124978 0.112364 0.007077 0.003017 0.054546 0.021690 -0.175000 0.115792 -0.119250 -0.008049 0.083775 -0.224120 0.057753 -0.005457 0.028225 0.172419 0.049071 0.068849 -0.011945 -0.090942 -0.112500 -0.047293 0.074317 -0.088134 0.031571 0.087502 0.225000 -0.002751 -0.025678 0.156250 0.072913 0.006173 -0.092826 0.114585 0.114391 0.017387 -0.059551 -0.046873 0.125000 0.009766 0.117209 -0.112499 0.035466 -0.018216 0.054689 0.056752 -0.091410 0.035781 0.087499 -0.031341 0.042655 0.218750 0.118262 0.049067
be -0.187500 0.023356 0.022504 -0.023438 0.055895 -0.093750 0.004970 0.093750 0.250000 -0.014265 -0.187500 0.015625 0.187500 0.015625 0.093750 0.187500 -0.093750 -0.011719 -0.093750 0.062500 0.046875 -0.093750 0.031250 0.093750 -0.046875 0.046875 -0.023438 0.093750 0.093750 0.048556 0.007813 0.187500 0.023344 -0.062500 -0.046875 -0.046875 0.024032 0.105032 0.122791 -0.052527 0.187500 0.093750 -0.015625 0.031250 -0.046875 0.094091 0.056923 0.046875 0.125000 -0.046875 0.023438 -0.023437 -0.125000 -0.046876 -0.062500 0.187500 -0.093750 0.099858 -0.093750 0.031250 -0.023437 0.093750 0.062500 -0.046875 0.046876 -0.161977 -0.015625 -0.031250 0.059317 0.011692 0.050447 -0.093750 0.125000 -0.093750 0.046875 0.093750 -0.187500 0.187500 0.015000 0.093750 -0.102564 -0.250000 -0.093750 -0.062500 -0.187500 -0.015508 -0.043959 0.007812 0.187500 0.015625 0.187500 -0.046875 0.000705 -0.187500 0.046875 0.093750 -0.187500 -0.046875 -0.015625 0.062500
made 0.072937 0.036034 -0.113848 -0.084792 0.107334 -0.052087 0.156252 -0.087049 0.142060 0.079265 -0.203144 -0.041653 0.059630 -0.155694 0.011483 -0.100912 0.087720 0.074697 -0.093742 0.056249 -0.175002 -0.050395 -0.040354 -0.031219 0.093752 -0.009631 -0.065231 -0.003891 0.196415 0.057269 -0.048710 0.062909 0.016194 0.085931 0.029602 -0.011014 0.014180 0.073596 0.005455 0.062299 -0.070974 -0.091245 0.087150 0.034556 -0.080364 0.027061 0.249996 0.005023 -0.046746 0.023825 0.026178 -0.078123 0.103334 -0.131475 0.014005 -0.132577 -0.156981 0.155111 -0.025436 0.143993 0.000992 -0.175001 0.002735 -0.076932 0.003297 0.053848 -0.006060 0.187506 0.001702 -0.010175 0.057768 0.089517 -0.019213 -0.160449 0.283569 0.180063 0.029080 -0.101037 0.161154 0.096458 -0.004469 -0.060926 0.057861 -0.116978 0.021429 -0.021270 0.149711 -0.023711 0.073647 0.048131 0.043756 0.040257 -0.172525 -0.058515 -0.014397 0.218874 -0.145827 -0.089643 -0.148260 -0.042300
used 0.109375 0.028125 -0.109375 -0.104167 0.078124 -0.024244 0.156251 -0.094818 0.109375 0.081581 -0.176652 -0.055966 0.049454 -0.178488 0.036101 -0.111872 0.101576 0.054625 -0.089402 0.021857 -0.217608 -0.087500 0.007043 -0.058537 0.062500 -0.003138 -0.043750 -0.009880 0.221371 0.050898 -0.056782 0.052622 0.046870 0.094516 0.012059 0.052082 -0.052080 0.060645 -0.038946 0.109203 -0.041471 -0.080238 0.156250 0.042107 -0.055914 0.001779 0.224507 -0.026039 -0.078125 0.026616 -0.019695 -0.087501 0.146376 -0.109375 0.076323 -0.189561 -0.218751 0.111792 -0.062498 0.176173 -0.003558 -0.206217 -0.008874 -0.002801 -0.000745 0.032028 0.010941 0.145833 -0.055654 0.015435 0.006048 0.054687 -0.012846 -0.124799 0.259046 0.175001 0.081177 -0.093750 0.125000 0.055878 -0.008474 -0.078126 0.156251 -0.082377 0.087497 -0.026564 0.117363 -0.015055 0.040813 0.028231 -0.001405 0.052448 -0.147687 -0.051195 -0.056685 0.154740 -0.109354 -0.093751 -0.112499 -0.053545
only 0.018479 -0.062320 -0.030137 -0.041975 0.062502 -0.026065 0.147002 -0.072933 -0.029115 0.249007 -0.087499 0.093237 -0.068470 -0.093752 0.049617 -0.005935 -0.089282 -0.178120 -0.062500 0.125000 -0.042524 -0.111154 0.156250 -0.073819 0.009035 -0.092571 -0.208335 -0.004558 0.160325 0.034187 0.041245 0.045779 0.070148 0.010775 -0.100954 0.050130 -0.020739 0.052260 0.082384 -0.098149 0.109330 -0.115932 0.224181 0.112485 0.043767 0.225587 0.088317 -0.176545 0.015568 0.043521 0.248645 0.088918 0.055709 -0.027707 -0.188790 0.104607 0.009239 -0.006264 0.043930 0.022018 -0.019526 0.010614 0.048291 -0.109376 -0.073700 0.026933 0.117557 -0.028115 -0.093307 0.001132 -0.055666 0.218017 0.046161 -0.027416 -0.023491 -0.043754 0.195652 -0.105884 -0.048785 -0.111599 0.028432 0.015629 0.021882 -0.110781 -0.073073 -0.045727 0.089552 0.055962 0.056818 -0.005606 0.029768 0.224623 -0.175001 -0.125000 0.104087 0.028733 -0.102350 0.013104 -0.017572 0.133156
if 0.146104 0.080350 0.152477 0.006559 -0.151704 0.080359 0.177988 0.046886 0.029879 0.044253 -0.077744 0.112568 0.057993 0.023395 -0.030493 -0.030722 0.069966 -0.010172 0.074952 0.046029 -0.047246 0.055024 -0.070059 -0.085215 0.175322 -0.121932 -0.031085 -0.238597 -0.085942 -0.125005 0.116828 0.046823 0.039794 -0.023132 0.026588 -0.038226 -0.005935 0.077398 0.221953 -0.212975 -0.016453 -0.135071 0.069402 -0.017810 0.044623 -0.039651 -0.085244 -0.032355 0.113460 0.055897 0.208333 0.017076 0.033596 -0.052519 -0.221605 -0.091657 0.003982 0.124306 0.172125 -0.062196 0.174287 0.061575 -0.092434 -0.107122 0.002947 0.014687 0.006045 -0.054221 -0.029898 0.006630 0.104347 0.242633 -0.060999 0.025842 -0.042110 -0.177674 -0.024876 -0.025544 0.105121 0.080358 -0.082739 0.069199 -0.067880 -0.103650 -0.089466 0.039059 0.125992 -0.245929 -0.089705 0.073259 -0.001440 0.098564 -0.044219 -0.020784 -0.082661 0.170456 -0.006610 -0.051428 -0.015636 0.115638
carefully -0.016274 -0.052549 0.047991 -0.069243 0.100059 -0.073417 0.022406 -0.104714 -0.023920 0.228298 -0.077463 0.125650 -0.039536 -0.158014 0.007030 0.050300 -0.071485 -0.080863 -0.023156 0.112844 0.035753 -0.174629 0.148014 -0.131086 0.008543 -0.032990 -0.168675 0.032597 0.064536 0.042775 0.091279 0.091192 0.112970 -0.064891 -0.107643 0.061202 -0.071693 0.114712 0.088634 -0.112808 0.099377 -0.092257 0.179977 0.060303 0.036152 0.218787 0.017833 -0.124523 -0.023358 -0.009976 0.223072 0.144124 0.068989 0.061802 -0.214080 0.072489 0.060373 -0.003844 -0.036621 0.070957 -0.054132 -0.032307 0.109084 -0.092551 -0.077829 -0.013400 0.117130 -0.032631 -0.010962 0.035891 -0.128992 0.183963 0.175320 -0.107359 -0.092912 -0.005552 0.163413 -0.015730 0.008520 -0.029193 0.008546 0.001356 0.002452 -0.127283 -0.046359 0.015531 0.074745 0.048819 0.069178 0.026978 0.214496 0.187656 -0.169014 -0.154334 0.118631 0.032146 -0.048876 0.085963 -0.032521 0.104777
selected 0.126851 0.018691 -0.129100 -0.081449 0.087651 -0.016037 0.178175 -0.077358 0.085627 0.083813 -0.151841 -0.058923 0.018960 -0.152094 0.049754 -0.111690 0.064076 0.027087 -0.105701 0.026583 -0.214041 -0.073108 0.029914 -0.053065 0.050564 -0.021422 -0.050687 -0.001773 0.228279 0.027879 -0.094756 0.014922 0.030327 0.107971 -0.027188 0.049761 -0.040793 0.056535 -0.030483 0.152638 -0.046632 -0.082342 0.142567 0.071977 -0.049535 0.014836 0.248270 -0.046123 -0.077655 0.023325 0.006636 -0.091313 0.150935 -0.111290 0.101668 -0.173660 -0.230673 0.126082 -0.056755 0.177813 -0.002110 -0.184282 -0.009468 0.005678 -0.015450 0.027629 0.007576 0.127888 -0.065448 -0.004895 0.012339 0.024180 -0.036269 -0.093015 0.264424 0.171662 0.101444 -0.146577 0.105546 -0.003068 -0.007322 -0.061068 0.146458 -0.063638 0.085244 -0.040698 0.112383 0.015306 0.036215 0.005406 -0.056950 0.054005 -0.133570 -0.048538 -0.071868 0.133811 -0.122889 -0.117491 -0.124329 -0.025015
same 0.009834 -0.059606 -0.175001 -0.044742 0.042209 0.068849 0.003309 0.053545 -0.046977 0.118367 0.073861 0.025925 -0.117187 0.030931 0.046521 -0.109375 -0.181543 -0.291665 0.056625 0.054632 -0.036848 -0.020146 0.086093 0.046756 -0.117135 -0.050376 -0.070510 -0.015600 0.162500 0.099377 -0.058575 -0.093372 0.112236 0.160714 -0.114582 -0.007418 0.092028 -0.042958 -0.162459 0.059881 0.120832 0.011998 0.210555 0.091969 0.109412 0.180457 0.014472 -0.055245 -0.012879 0.057295 0.044364 0.043847 0.040403 -0.004715 0.114556 0.093754 -0.231193 -0.013554 -0.003336 -0.008238 -0.072578 0.039349 -0.005823 0.071151 0.070311 0.001059 0.042782 -0.058556 -0.111667 0.010490 -0.162899 -0.062503 -0.117014 0.104147 0.025768 -0.051468 0.080507 -0.080498 -0.152783 -0.085303 0.061968 -0.086336 0.232137 0.019985 -0.012141 -0.114301 0.044718 0.097329 0.059894 -0.124999 -0.281880 0.058591 0.076357 -0.133133 0.016990 -0.197633 -0.026853 -0.039132 0.033827 0.102886
company -0.166745 -0.241816 -0.048381 0.051157 -0.002737 0.042005 -0.249994 0.098197 -0.067712 0.030270 0.224965 0.003116 0.084153 0.046915 -0.133881 0.117765 -0.018729 -0.077296 0.073604 -0.134916 0.151158 0.041176 -0.096394 0.034572 -0.071494 -0.063215 -0.115709 0.081847 0.045473 -0.032953 0.077603 -0.131047 0.016928 0.033895 0.049643 0.005156 0.038714 -0.063968 -0.270690 0.049060 0.041358 0.087407 0.136371 -0.033173 0.035869 -0.050905 -0.123550 0.026705 0.054806 -0.104070 -0.121659 -0.085224 -0.187498 0.005681 0.154991 -0.027167 -0.110607 -0.093844 -0.138285 -0.047722 -0.154311 -0.008740 0.062492 0.068496 -0.046815 -0.117927 -0.000525 0.010671 -0.046716 0.187467 -0.124724 -0.094668 -0.049841 -0.020038 -0.078073 -0.091996 0.011552 -0.114226 0.139291 -0.030386 0.054704 0.109268 0.123004 -0.041107 -0.093906 -0.085583 0.014523 0.107271 0.062787 -0.187522 0.024573 0.079040 0.037850 0.081139 0.121478 -0.144643 0.076766 -0.024098 -0.119459 -0.115086
file -0.065253 -0.169132 -0.089546 0.019939 -0.046702 0.082837 -0.127171 -0.023056 -0.015336 0.017863 0.067713 0.172585 0.045820 0.046859 -0.061397 0.158393 -0.063676 0.006431 0.107587 -0.000631 -0.006019 0.028312 -0.018235 0.096289 -0.112359 -0.023928 0.058858 -0.025024 -0.039325 0.082612 0.077871 -0.164888 0.026945 0.044504 0.006475 0.063792 0.106445 -0.107746 -0.315248 0.066336 0.172601 0.055889 0.118497 -0.018627 0.061743 0.053136 -0.124635 0.135204 0.113265 -0.035311 -0.117640 0.004757 -0.094019 -0.103466 0.177413 -0.024410 -0.226228 0.008294 0.010235 0.012458 -0.104809 -0.031106 0.131759 -0.079330 -0.004240 -0.081745 -0.073452 0.050671 0.111580 0.404372 -0.097147 -0.138771 -0.000949 0.000914 0.024050 -0.053394 0.109044 -0.021056 0.119697 0.112224 -0.021177 -0.092051 0.097391 -0.079290 -0.068544 0.060301 0.136809 0.049863 0.069073 -0.095263 -0.034091 -0.054229 0.101663 -0.062484 0.040992 -0.106836 -0.072715 -0.030504 0.119349 -0.099621
such 0.223137 -0.024012 -0.026397 0.078125 -0.103223 0.111144 0.226593 -0.078124 -0.109372 0.047582 -0.124997 -0.005190 -0.026187 -0.100869 0.188736 0.208334 0.011692 0.095395 -0.062498 -0.187504 -0.111719 -0.108888 0.156250 -0.054676 -0.054840 -0.110921 0.048062 -0.039062 0.013278 -0.222685 0.017623 -0.070488 0.073149 -0.048964 -0.069295 0.151709 -0.175027 0.062155 0.096887 0.185585 0.109372 -0.054821 0.187500 0.104118 -0.027344 0.049985 0.094186 -0.093750 0.054683 0.011583 0.039063 0.043748 0.111889 -0.097816 -0.186952 -0.159428 -0.073109 -0.008809 -0.156250 0.188333 0.109375 -0.093750 0.022117 0.109245 0.027677 -0.016121 -0.061913 -0.044595 -0.071513 0.047478 0.047097 0.030246 0.036412 -0.104165 0.049082 0.049474 0.054550 -0.104165 -0.002437 -0.038792 0.028987 0.033978 0.023218 0.009765 -0.056027 0.028594 0.010571 -0.054872 0.047923 0.089031 -0.111247 0.189541 -0.007631 -0.005900 -0.188712 0.016194 0.093955 -0.111073 -0.097836 0.021518
though 0.199151 0.065185 0.119896 0.096844 -0.125007 0.120693 0.159775 -0.012271 0.048696 0.098346 -0.126975 0.132093 0.065302 -0.055972 -0.049012 -0.044229 0.090438 -0.057365 0.087706 0.114532 0.018890 0.014504 -0.072373 -0.099446 0.161421 -0.120082 0.006698 -0.197114 -0.066013 -0.157456 0.112051 0.008326 0.081178 -0.046834 -0.054435 -0.116723 0.017879 0.105957 0.153863 -0.165971 -0.044503 -0.187486 0.064282 -0.059790 -0.009252 0.030532 -0.022422 -0.018979 0.157146 0.019030 0.217687 0.054932 0.091699 -0.041017 -0.213305 -0.074409 0.050511 0.138895 0.162001 -0.104879 0.179907 0.094099 -0.073179 -0.052437 -0.039218 -0.044552 0.005226 -0.018829 -0.078222 -0.012043 0.066708 0.242153 0.039256 -0.047001 -0.079660 -0.153606 -0.034111 -0.153103 0.144234 0.004723 -0.079546 0.084524 -0.049225 -0.090857 -0.066784 0.015965 0.134366 -0.126496 -0.097665 0.080711 0.035855 0.077800 -0.023645 -0.019528 -0.058719 0.152839 0.008413 0.006972 0.018711 0.056605
foreign 0.086732 -0.085845 -0.038977 -0.004607 0.039475 0.123301 0.013619 0.101074 -0.122875 0.021878 0.050645 -0.035566 -0.140972 0.078579 0.088463 0.089557 -0.162574 -0.112607 0.033882 -0.086163 0.009993 0.033424 0.054220 0.007700 -0.177709 -0.113157 0.132249 0.052259 0.137475 -0.113048 -0.082307 -0.118348 0.129169 0.098909 -0.183295 0.010502 0.089853 0.045597 -0.053653 0.281310 0.068305 0.065640 0.095027 0.094655 0.065692 0.045329 0.101404 -0.163809 -0.010510 -0.092546 -0.029285 -0.005300 0.020300 0.027657 0.121765 -0.014817 -0.134771 0.015324 -0.017378 0.152980 -0.036533 0.046629 0.072121 0.225971 -0.025060 -0.044102 -0.053600 -0.108110 0.003921 0.016303 -0.000875 -0.156654 -0.053932 0.191997 -0.045341 0.018108 0.045081 -0.145522 -0.098678 -0.175007 0.004539 0.001272 0.109448 0.131995 0.086004 -0.054359 0.063430 0.111340 0.071100 -0.060306 -0.268432 0.072210 0.104227 -0.102094 -0.061721 -0.175894 0.033278 -0.094589 -0.072183 0.120602
contracts -0.089291 -0.092802 0.067203 -0.087252 -0.031122 0.100637 -0.129661 -0.146280 -0.051633 -0.000712 -0.010238 -0.075224 0.044250 0.082442 0.043811 0.093493 0.119550 0.148486 -0.034169 -0.063913 0.002395 -0.076820 -0.151683 0.008700 0.006359 0.000350 0.071329 0.030799 0.137457 -0.111528 0.036618 -0.026079 0.096882 -0.026264 0.177714 0.120562 0.036083 -0.153305 -0.353321 0.017804 0.114129 -0.084457 0.147879 -0.076721 0.024293 -0.023363 -0.074143 -0.042054 -0.109560 -0.070388 -0.278775 0.043412 -0.051429 0.099831 -0.001610 -0.142181 0.065316 -0.028320 -0.137198 -0.013099 -0.081562 -0.042171 -0.002323 -0.036280 -0.086776 0.038004 -0.025445 0.077742 -0.046280 0.262382 0.077119 0.061420 0.077058 0.012826 -0.077738 -0.049399 0.152551 0.133995 0.183131 0.008375 -0.057063 0.017716 0.040388 -0.020043 0.066536 0.064027 -0.033090 -0.093481 0.069119 -0.049975 0.243716 -0.049028 -0.099824 -0.049943 0.075883 -0.036552 0.095625 -0.035026 -0.003402 -0.222904
services -0.116587 -0.106848 0.089463 -0.080063 -0.045183 0.108101 -0.166496 -0.116956 -0.088695 -0.007373 0.009461 -0.078970 0.013073 0.089918 0.035100 0.108606 0.090539 0.168419 -0.021689 -0.076828 0.025697 -0.059230 -0.172519 0.034018 -0.025403 -0.021668 0.145410 0.051377 0.131979 -0.112826 0.066230 -0.022609 0.111048 -0.035487 0.145718 0.088471 0.062475 -0.137979 -0.354164 0.043716 0.125027 -0.040004 0.125008 -0.077087 0.026618 -0.040060 -0.081293 -0.049338 -0.093758 -0.064117 -0.292881 0.053169 -0.078312 0.116839 0.003620 -0.150876 0.086729 -0.060981 -0.094034 -0.013657 -0.106515 -0.029250 0.044751 -0.046666 -0.080181 0.018117 -0.058091 0.072845 0.007498 0.245372 0.078488 0.030305 0.061758 0.029744 -0.100141 -0.063873 0.144051 0.110304 0.166695 0.002158 -0.029958 0.038457 0.023882 -0.008720 0.082799 0.073764 -0.032060 -0.045302 0.086042 -0.045797 0.205355 -0.037516 -0.048527 -0.030119 0.073398 -0.055631 0.111901 -0.027615 -0.001493 -0.222107
exempt 0.081972 0.028179 -0.128306 -0.097720 0.060632 -0.044986 0.176690 -0.088707 0.112861 0.056174 -0.171659 -0.063336 0.026322 -0.116551 0.077361 -0.074984 0.025682 0.048923 -0.087207 0.018279 -0.193963 -0.104331 0.056419 -0.017697 0.007454 -0.011638 -0.012410 -0.011766 0.237078 0.036044 -0.097953 0.025930 0.051414 0.079104 -0.063277 0.069537 0.009440 0.056083 -0.076034 0.191083 0.020658 -0.072654 0.183985 0.054568 0.022436 0.037873 0.244650 -0.001481 -0.077621 0.030606 -0.009816 -0.071363 0.130572 -0.075152 0.108550 -0.135983 -0.258842 0.170234 -0.052763 0.182015 -0.046214 -0.153086 0.007161 -0.023499 -0.009707 0.007608 0.008728 0.111585 -0.023735 0.070368 0.040272 -0.027355 0.028096 -0.056446 0.242267 0.179306 0.113192 -0.095764 0.099380 -0.011230 -0.068766 -0.104041 0.167973 -0.050186 0.048176 -0.043732 0.120454 0.056197 0.048359 0.002713 0.001306 0.022784 -0.120515 -0.112309 -0.057306 0.114771 -0.193274 -0.136494 -0.063473 -0.048626
available 0.122056 0.015088 -0.106357 -0.109881 0.060983 -0.016397 0.172986 -0.107117 0.048971 0.094433 -0.148329 -0.043112 -0.008831 -0.172167 0.054676 -0.112786 0.069481 0.037731 -0.071973 0.008223 -0.220973 -0.104256 0.053401 -0.054071 0.022453 -0.024066 -0.019745 -0.019125 0.230029 0.035899 -0.069722 0.011814 0.069861 0.096563 -0.037005 0.102583 -0.052577 0.049424 -0.074367 0.159673 -0.007738 -0.082259 0.204274 0.052895 0.005460 0.011428 0.203984 -0.047793 -0.108701 0.042634 -0.014173 -0.057891 0.156914 -0.081100 0.094582 -0.201532 -0.249129 0.103529 -0.049157 0.184751 -0.042115 -0.195464 0.000899 -0.005618 -0.018960 0.034172 0.025210 0.110053 -0.052800 0.068806 -0.012705 0.028222 0.002836 -0.080743 0.235586 0.143628 0.143703 -0.103904 0.114716 0.006653 -0.018253 -0.067786 0.186089 -0.059113 0.101607 -0.022708 0.132198 0.025560 0.037077 0.010556 -0.023126 0.058045 -0.115621 -0.054469 -0.085254 0.087501 -0.118688 -0.104190 -0.075450 -0.055568
from -0.093750 0.046875 0.026296 -0.037077 -0.187499 -0.062500 0.103502 -0.007888 0.093750 0.046870 -0.093750 -0.093750 -0.013212 0.029976 -0.093750 -0.125000 0.049253 0.001424 0.062500 0.006260 0.000101 0.031250 -0.044659 -0.046000 0.062500 0.046873 0.047719 -0.202081 0.007214 -0.046463 0.187500 -0.093750 -0.187224 -0.093750 0.093750 -0.093774 0.187500 0.109678 0.211160 -0.031250 -0.052328 -0.000912 -0.125000 -0.046875 0.007402 -0.093749 0.187499 0.036685 -0.031249 0.046875 0.089739 -0.031129 -0.062499 -0.015625 -0.187500 0.027424 0.046876 -0.093750 0.093750 -0.031250 -0.021934 0.093750 -0.093750 -0.031250 0.104323 0.210230 0.015625 -0.021905 0.099155 -0.187500 0.187500 0.187500 -0.093750 0.250000 0.187500 -0.093750 -0.187500 0.031250 -0.093750 0.062500 0.093750 0.093750 -0.048490 0.031252 -0.046875 -0.029756 0.100559 0.093750 -0.093750 0.106912 0.023171 0.120140 -0.093693 0.115035 -0.003426 0.031247 -0.125000 0.031564 0.049446 -0.093749
protest -0.056030 -0.097576 -0.133465 0.048737 0.012438 0.079116 -0.067242 0.077289 0.113582 -0.060113 -0.016437 -0.006723 0.176743 0.181482 0.085186 0.173911 -0.032923 -0.037907 0.041723 0.000301 0.057329 -0.083135 -0.063689 0.051789 -0.072765 -0.018643 -0.060144 0.008671 0.123079 -0.035731 -0.048529 -0.081631 -0.019200 0.031837 0.090262 0.081876 0.154744 -0.123119 -0.257446 0.032539 0.239055 0.032222 0.142484 0.010816 0.017283 0.060394 -0.031836 0.084699 0.045354 -0.119072 -0.186676 -0.111229 -0.072191 -0.016530 0.129623 0.084290 -0.157193 0.098788 -0.162693 -0.016145 0.013944 0.086622 -0.017467 0.095280 -0.031804 -0.085574 -0.040528 -0.036352 -0.189079 0.285953 0.060759 -0.106670 0.080090 0.045259 -0.003671 0.015664 -0.006406 0.167695 0.052891 -0.054897 -0.179987 -0.130629 0.110325 0.078840 -0.107989 -0.039777 -0.051349 -0.003666 -0.001105 -0.095298 0.133167 -0.108073 -0.041438 -0.160598 0.080863 -0.095792 -0.025605 -0.155086 0.074903 -0.094126
VAT 0.037248 -0.033813 0.033556 -0.054427 -0.076739 0.082692 -0.064681 -0.131892 -0.069370 0.024865 -0.002463 -0.072636 -0.050556 0.123865 0.139155 0.104532 -0.022703 0.096496 0.077993 -0.123805 0.015510 -0.053223 0.016402 0.097283 -0.112692 -0.023928 0.171640 0.035383 -0.054470 -0.039941 -0.047917 -0.029598 0.103910 0.001274 0.010281 0.102824 0.095645 -0.143725 -0.318292 0.038729 0.219317 -0.047765 0.156163 -0.095455 0.092220 0.037412 -0.115983 0.036158 -0.010467 -0.069772 -0.171675 0.072916 0.022729 0.099037 0.107260 -0.069865 -0.045384 0.099809 -0.041563 0.051393 0.042145 0.050379 0.056724 0.082731 -0.047324 -0.012802 0.029452 -0.086061 -0.044634 0.307354 0.056537 -0.163289 0.033271 0.040442 -0.237529 -0.028206 0.213661 0.072612 0.013910 -0.196336 -0.108105 -0.089135 0.162078 0.083490 0.011090 0.064468 0.033927 0.016612 0.009483 -0.037017 -0.010412 -0.103554 0.025143 -0.152056 0.092225 -0.097417 0.080176 0.035965 0.146687 -0.126708
over -0.078132 0.040261 -0.011818 -0.042976 -0.125000 -0.160317 0.199904 -0.078237 -0.024424 -0.021609 -0.099170 -0.156250 -0.062500 0.009726 0.001242 -0.072914 0.023189 0.021816 0.031997 0.039040 -0.114295 0.024325 0.075041 0.015505 -0.012113 -0.003796 -0.046811 -0.124653 0.014710 0.017539 -0.010551 -0.054207 -0.175683 -0.085005 0.078137 -0.001044 0.222988 0.087705 0.119408 -0.043063 -0.048332 -0.112987 0.021731 0.028338 0.087464 -0.045640 0.160714 -0.005194 -0.064138 0.093746 0.110274 -0.005240 0.003916 -0.039245 -0.163738 0.062501 0.114329 -0.041183 0.175024 -0.080331 -0.072454 0.093752 -0.088427 -0.221675 0.058125 0.291667 0.080742 0.001713 0.045588 -0.116222 0.176244 0.175006 -0.114326 0.196537 0.156250 -0.114445 -0.104178 -0.012882 -0.062501 -0.006873 0.010580 0.093166 -0.054692 -0.014106 -0.158706 -0.052051 0.145819 0.063173 -0.078127 0.052220 0.071566 0.160718 -0.173560 0.112058 0.009570 0.057633 -0.187501 0.013472 0.030450 0.009399
per -0.059596 -0.030123 -0.197109 0.016170 0.044715 -0.098916 0.083601 -0.023009 -0.077414 -0.148528 0.043451 0.023076 -0.169985 0.078938 -0.054361 -0.021878 -0.149385 -0.091013 -0.159059 0.027643 -0.099320 0.094117 0.142312 -0.054133 -0.006760 -0.141255 0.038746 -0.006967 -0.119894 0.140899 -0.015758 -0.083297 -0.152654 0.101951 -0.025304 0.036155 -0.036314 0.038720 0.179694 0.038116 -0.083328 -0.070511 -0.123913 0.151134 0.024316 0.199327 -0.098892 -0.000171 0.028061 -0.026069 0.055007 0.024608 0.052939 -0.060961 0.026060 0.076032 0.148270 0.002206 0.210698 -0.142633 0.093701 0.009165 -0.031850 -0.120419 0.071185 0.193912 -0.174810 -0.043975 0.193718 -0.107423 0.090699 -0.058970 0.046523 -0.088674 -0.106790 0.017592 0.044974 0.071154 0.108113 -0.103838 0.183987 0.075218 -0.217473 -0.039011 -0.060334 0.145981 -0.036006 0.001962 0.021797 0.043634 -0.136519 -0.045612 -0.030355 0.070494 -0.107490 -0.029072 -0.101530 0.059580 0.088264 0.200294
no 0.045017 -0.017276 -0.156252 0.004026 0.083970 -0.088094 0.117214 -0.066372 -0.093745 -0.074730 -0.023428 0.071154 -0.166281 0.014727 0.007754 0.087784 -0.208335 0.002181 -0.218751 0.055009 -0.093752 0.013648 0.218587 -0.093901 -0.057223 -0.179801 0.049593 0.004867 -0.058608 -0.000178 -0.007223 -0.078849 -0.057405 0.037120 -0.153412 0.111671 -0.088743 0.107527 0.216033 0.208331 -0.040489 -0.121492 -0.025229 0.129491 0.072740 0.224943 0.028729 -0.060209 0.033681 -0.062498 0.187500 0.068780 0.110689 -0.012728 0.056177 0.029161 0.089317 0.139177 0.060299 0.118383 0.093748 -0.071379 0.092747 -0.014632 0.001063 0.041520 -0.115121 -0.062500 0.156903 -0.112087 0.013367 -0.093753 0.124980 -0.019921 -0.098225 0.114836 0.112494 0.001234 0.014505 -0.160717 0.025523 0.001671 -0.130412 -0.016015 0.001064 0.145839 -0.029980 0.045429 0.025333 0.062498 -0.102719 0.089245 -0.103342 -0.102140 -0.094640 0.003232 -0.116063 -0.020926 -0.033869 0.225187
Federal 0.045629 -0.062434 -0.009361 -0.015260 0.132121 0.073121 -0.072687 0.286437 -0.112739 0.035125 0.109170 -0.141986 -0.068539 0.044028 0.061080 -0.065093 -0.031362 -0.124048 -0.009463 -0.095055 0.115965 0.102172 -0.051983 0.041530 -0.107122 -0.085601 0.029981 0.168391 0.112236 0.064245 -0.115968 0.041293 0.074189 0.083274 -0.085787 -0.094382 0.087329 -0.034590 0.075549 0.030161 0.008535 0.259488 -0.034159 -0.002223 0.039574 -0.132585 0.068713 -0.030911 -0.064384 -0.051393 0.033649 -0.101255 0.000033 0.026013 0.137882 0.002390 -0.113878 0.023857 -0.031067 0.066783 -0.042554 0.115675 0.045803 0.198115 -0.031121 -0.128542 -0.008693 -0.189254 -0.144699 -0.098506 -0.056454 -0.061682 -0.107459 -0.035740 -0.105303 0.004234 -0.107982 -0.104233 -0.148131 -0.211201 0.102421 0.050316 0.085460 0.030663 0.053472 -0.130329 -0.071012 0.159422 0.013327 -0.048762 -0.267012 -0.024285 0.163829 -0.002747 -0.005477 -0.084810 0.167951 -0.097895 -0.104215 0.074362
mile -0.136193 0.062292 -0.172087 0.092111 0.117803 0.030312 -0.031932 0.048331 -0.033655 -0.052828 0.177970 0.107414 -0.025163 0.042411 -0.116072 0.074065 -0.108135 -0.194856 -0.132314 0.059390 -0.030922 -0.068120 0.050514 -0.007790 -0.122572 0.027013 -0.238839 -0.026267 0.015483 0.087417 0.052573 -0.119211 -0.044888 0.085589 0.032513 0.098266 0.017891 -0.062965 -0.207386 0.028481 -0.024405 -0.105275 0.089368 0.015820 0.101926 0.024776 -0.102471 0.143944 -0.185758 0.178866 -0.082870 0.053461 -0.092870 -0.026234 -0.011955 0.035187 -0.068053 -0.036276 -0.094539 -0.230304 -0.082296 0.024441 0.007174 -0.259323 0.045587 -0.000309 -0.078608 -0.007767 0.139503 -0.096311 -0.086271 -0.016351 -0.029644 0.007657 0.119863 -0.010749 0.008839 0.013392 0.132813 0.102417 0.029087 -0.107845 0.115119 0.008404 -0.107508 0.028890 -0.180167 0.082306 0.020538 -0.201498 0.002734 -0.136713 -0.005191 0.061745 -0.051338 -0.271490 0.047535 -0.060348 0.057878 -0.024188
Acquisition -0.022836 -0.058302 0.023133 -0.024008 0.104448 0.055103 -0.085018 0.164890 -0.144557 0.043291 0.077558 -0.176824 0.008026 0.048520 0.032425 -0.078609 0.121281 0.071752 -0.116750 -0.093666 0.109872 0.199769 -0.153121 0.094052 -0.022926 -0.054343 0.022580 0.193030 -0.048904 0.176647 -0.062912 0.087853 -0.032517 0.074554 0.077791 -0.072622 0.059095 -0.202115 -0.030248 -0.079466 0.028135 0.270923 -0.039690 -0.200704 0.076199 -0.177685 -0.036599 0.160108 -0.040354 -0.019285 0.005567 -0.075453 -0.054394 -0.020218 0.115356 -0.131639 -0.105647 0.093018 -0.044274 -0.039573 -0.030679 0.051384 0.064297 0.049013 -0.014475 -0.103080 0.014184 -0.076539 -0.120692 0.101979 0.007374 -0.003492 -0.056007 -0.209223 -0.190876 -0.046261 -0.038186 0.027199 -0.005565 -0.162611 0.152436 0.054028 0.034338 -0.140295 0.011124 -0.019572 -0.124842 0.141085 -0.042350 -0.012607 -0.086729 -0.088787 0.107344 0.080331 0.052249 0.040867 0.202176 -0.033956 -0.037232 -0.128465
Express -0.017887 -0.084401 0.054234 0.032643 0.078944 0.008358 -0.151973 0.210152 -0.125239 0.088135 0.163985 -0.131510 0.047893 -0.022598 -0.043777 -0.059222 0.098664 0.025032 -0.008770 -0.086962 0.123147 0.105674 -0.171982 0.098523 -0.018473 0.000787 -0.055109 0.218050 -0.039519 0.151856 -0.050379 0.037045 -0.014137 0.072068 -0.022505 -0.090810 0.022179 -0.114265 -0.020316 -0.070758 0.001019 0.286181 -0.039265 -0.146008 0.023832 -0.151131 -0.082455 0.117505 -0.091383 -0.007905 -0.021485 -0.081179 -0.097070 0.018897 0.134156 -0.103998 -0.066301 0.007604 -0.042857 -0.064601 -0.110988 0.011707 0.071182 0.017421 -0.076688 -0.101989 0.041915 -0.060080 -0.126156 0.077547 -0.039023 -0.039751 -0.083504 -0.212437 -0.114939 -0.066195 -0.045593 -0.047207 0.045295 -0.125270 0.214111 0.114887 0.075399 -0.099904 0.016380 -0.052213 -0.057039 0.225070 0.015367 -0.082651 -0.056648 -0.075186 0.159503 0.143373 0.084575 0.047069 0.199152 -0.002223 -0.071865 -0.160134
